digraph Tree {
node [shape=box, fontname="helvetica"] ;
edge [fontname="helvetica"] ;
0 [label="x[8] <= 0.221\nentropy = 0.974\nsamples = 712\nvalue = [424, 288]\nclass = y[0]"] ;
1 [label="x[0] <= 0.244\nentropy = 0.835\nsamples = 286\nvalue = [76, 210]\nclass = y[1]"] ;
0 -> 1 [labeldistance=2.5, labelangle=45, headlabel="True"] ;
2 [label="x[12] <= 0.988\nentropy = 0.321\nsamples = 154\nvalue = [9, 145]\nclass = y[1]"] ;
1 -> 2 ;
3 [label="x[13] <= 0.137\nentropy = 0.156\nsamples = 44\nvalue = [1, 43]\nclass = y[1]"] ;
2 -> 3 ;
4 [label="x[0] <= -0.844\nentropy = 0.297\nsamples = 19\nvalue = [1, 18]\nclass = y[1]"] ;
3 -> 4 ;
5 [label="x[3] <= 2.233\nentropy = 0.353\nsamples = 15\nvalue = [1, 14]\nclass = y[1]"] ;
4 -> 5 ;
6 [label="x[3] <= 1.546\nentropy = 0.371\nsamples = 14\nvalue = [1, 13]\nclass = y[1]"] ;
5 -> 6 ;
7 [label="entropy = 0.0\nsamples = 13\nvalue = [0, 13]\nclass = y[1]"] ;
6 -> 7 ;
8 [label="entropy = 0.0\nsamples = 1\nvalue = [1, 0]\nclass = y[0]"] ;
6 -> 8 ;
9 [label="entropy = 0.0\nsamples = 1\nvalue = [0, 1]\nclass = y[1]"] ;
5 -> 9 ;
10 [label="entropy = 0.0\nsamples = 4\nvalue = [0, 4]\nclass = y[1]"] ;
4 -> 10 ;
11 [label="entropy = 0.0\nsamples = 25\nvalue = [0, 25]\nclass = y[1]"] ;
3 -> 11 ;
12 [label="x[6] <= 0.47\nentropy = 0.376\nsamples = 110\nvalue = [8, 102]\nclass = y[1]"] ;
2 -> 12 ;
13 [label="x[3] <= -0.095\nentropy = 0.399\nsamples = 101\nvalue = [8, 93]\nclass = y[1]"] ;
12 -> 13 ;
14 [label="x[3] <= -0.515\nentropy = 0.535\nsamples = 41\nvalue = [5, 36]\nclass = y[1]"] ;
13 -> 14 ;
15 [label="x[3] <= -1.363\nentropy = 0.242\nsamples = 25\nvalue = [1, 24]\nclass = y[1]"] ;
14 -> 15 ;
16 [label="x[0] <= -0.915\nentropy = 0.722\nsamples = 5\nvalue = [1, 4]\nclass = y[1]"] ;
15 -> 16 ;
17 [label="entropy = 0.0\nsamples = 1\nvalue = [1, 0]\nclass = y[0]"] ;
16 -> 17 ;
18 [label="entropy = 0.0\nsamples = 4\nvalue = [0, 4]\nclass = y[1]"] ;
16 -> 18 ;
19 [label="entropy = 0.0\nsamples = 20\nvalue = [0, 20]\nclass = y[1]"] ;
15 -> 19 ;
20 [label="x[0] <= -1.041\nentropy = 0.811\nsamples = 16\nvalue = [4, 12]\nclass = y[1]"] ;
14 -> 20 ;
21 [label="x[4] <= 3.53\nentropy = 1.0\nsamples = 2\nvalue = [1, 1]\nclass = y[0]"] ;
20 -> 21 ;
22 [label="entropy = 0.0\nsamples = 1\nvalue = [1, 0]\nclass = y[0]"] ;
21 -> 22 ;
23 [label="entropy = 0.0\nsamples = 1\nvalue = [0, 1]\nclass = y[1]"] ;
21 -> 23 ;
24 [label="x[3] <= -0.349\nentropy = 0.75\nsamples = 14\nvalue = [3, 11]\nclass = y[1]"] ;
20 -> 24 ;
25 [label="x[13] <= 0.236\nentropy = 0.544\nsamples = 8\nvalue = [1, 7]\nclass = y[1]"] ;
24 -> 25 ;
26 [label="entropy = 1.0\nsamples = 2\nvalue = [1, 1]\nclass = y[0]"] ;
25 -> 26 ;
27 [label="entropy = 0.0\nsamples = 6\nvalue = [0, 6]\nclass = y[1]"] ;
25 -> 27 ;
28 [label="x[14] <= 0.71\nentropy = 0.918\nsamples = 6\nvalue = [2, 4]\nclass = y[1]"] ;
24 -> 28 ;
29 [label="x[2] <= 0.459\nentropy = 0.918\nsamples = 3\nvalue = [2, 1]\nclass = y[0]"] ;
28 -> 29 ;
30 [label="x[4] <= -0.17\nentropy = 1.0\nsamples = 2\nvalue = [1, 1]\nclass = y[0]"] ;
29 -> 30 ;
31 [label="entropy = 0.0\nsamples = 1\nvalue = [1, 0]\nclass = y[0]"] ;
30 -> 31 ;
32 [label="entropy = 0.0\nsamples = 1\nvalue = [0, 1]\nclass = y[1]"] ;
30 -> 32 ;
33 [label="entropy = 0.0\nsamples = 1\nvalue = [1, 0]\nclass = y[0]"] ;
29 -> 33 ;
34 [label="entropy = 0.0\nsamples = 3\nvalue = [0, 3]\nclass = y[1]"] ;
28 -> 34 ;
35 [label="x[0] <= -1.081\nentropy = 0.286\nsamples = 60\nvalue = [3, 57]\nclass = y[1]"] ;
13 -> 35 ;
36 [label="entropy = 0.0\nsamples = 29\nvalue = [0, 29]\nclass = y[1]"] ;
35 -> 36 ;
37 [label="x[3] <= 2.162\nentropy = 0.459\nsamples = 31\nvalue = [3, 28]\nclass = y[1]"] ;
35 -> 37 ;
38 [label="x[3] <= 0.644\nentropy = 0.353\nsamples = 30\nvalue = [2, 28]\nclass = y[1]"] ;
37 -> 38 ;
39 [label="entropy = 0.0\nsamples = 16\nvalue = [0, 16]\nclass = y[1]"] ;
38 -> 39 ;
40 [label="x[3] <= 1.321\nentropy = 0.592\nsamples = 14\nvalue = [2, 12]\nclass = y[1]"] ;
38 -> 40 ;
41 [label="x[3] <= 0.812\nentropy = 0.764\nsamples = 9\nvalue = [2, 7]\nclass = y[1]"] ;
40 -> 41 ;
42 [label="entropy = 0.0\nsamples = 1\nvalue = [1, 0]\nclass = y[0]"] ;
41 -> 42 ;
43 [label="x[3] <= 0.998\nentropy = 0.544\nsamples = 8\nvalue = [1, 7]\nclass = y[1]"] ;
41 -> 43 ;
44 [label="entropy = 0.0\nsamples = 5\nvalue = [0, 5]\nclass = y[1]"] ;
43 -> 44 ;
45 [label="x[3] <= 1.16\nentropy = 0.918\nsamples = 3\nvalue = [1, 2]\nclass = y[1]"] ;
43 -> 45 ;
46 [label="entropy = 0.0\nsamples = 1\nvalue = [1, 0]\nclass = y[0]"] ;
45 -> 46 ;
47 [label="entropy = 0.0\nsamples = 2\nvalue = [0, 2]\nclass = y[1]"] ;
45 -> 47 ;
48 [label="entropy = 0.0\nsamples = 5\nvalue = [0, 5]\nclass = y[1]"] ;
40 -> 48 ;
49 [label="entropy = 0.0\nsamples = 1\nvalue = [1, 0]\nclass = y[0]"] ;
37 -> 49 ;
50 [label="entropy = 0.0\nsamples = 9\nvalue = [0, 9]\nclass = y[1]"] ;
12 -> 50 ;
51 [label="x[1] <= 1.34\nentropy = 1.0\nsamples = 132\nvalue = [67, 65]\nclass = y[0]"] ;
1 -> 51 ;
52 [label="x[6] <= 0.571\nentropy = 0.98\nsamples = 103\nvalue = [43, 60]\nclass = y[1]"] ;
51 -> 52 ;
53 [label="x[4] <= 0.001\nentropy = 0.991\nsamples = 97\nvalue = [43, 54]\nclass = y[1]"] ;
52 -> 53 ;
54 [label="x[12] <= 0.55\nentropy = 0.984\nsamples = 94\nvalue = [40, 54]\nclass = y[1]"] ;
53 -> 54 ;
55 [label="x[14] <= 0.508\nentropy = 0.926\nsamples = 44\nvalue = [15, 29]\nclass = y[1]"] ;
54 -> 55 ;
56 [label="x[3] <= 0.625\nentropy = 0.993\nsamples = 20\nvalue = [9, 11]\nclass = y[1]"] ;
55 -> 56 ;
57 [label="x[4] <= -0.191\nentropy = 0.982\nsamples = 19\nvalue = [8, 11]\nclass = y[1]"] ;
56 -> 57 ;
58 [label="x[3] <= 0.023\nentropy = 0.991\nsamples = 18\nvalue = [8, 10]\nclass = y[1]"] ;
57 -> 58 ;
59 [label="x[2] <= 2.285\nentropy = 0.977\nsamples = 17\nvalue = [7, 10]\nclass = y[1]"] ;
58 -> 59 ;
60 [label="x[3] <= -2.023\nentropy = 0.989\nsamples = 16\nvalue = [7, 9]\nclass = y[1]"] ;
59 -> 60 ;
61 [label="entropy = 0.0\nsamples = 2\nvalue = [0, 2]\nclass = y[1]"] ;
60 -> 61 ;
62 [label="x[3] <= -1.383\nentropy = 1.0\nsamples = 14\nvalue = [7, 7]\nclass = y[0]"] ;
60 -> 62 ;
63 [label="entropy = 0.0\nsamples = 1\nvalue = [1, 0]\nclass = y[0]"] ;
62 -> 63 ;
64 [label="x[1] <= -0.053\nentropy = 0.996\nsamples = 13\nvalue = [6, 7]\nclass = y[1]"] ;
62 -> 64 ;
65 [label="x[4] <= -0.368\nentropy = 0.971\nsamples = 5\nvalue = [3, 2]\nclass = y[0]"] ;
64 -> 65 ;
66 [label="entropy = 0.0\nsamples = 1\nvalue = [1, 0]\nclass = y[0]"] ;
65 -> 66 ;
67 [label="x[4] <= -0.284\nentropy = 1.0\nsamples = 4\nvalue = [2, 2]\nclass = y[0]"] ;
65 -> 67 ;
68 [label="x[4] <= -0.356\nentropy = 0.918\nsamples = 3\nvalue = [2, 1]\nclass = y[0]"] ;
67 -> 68 ;
69 [label="entropy = 0.0\nsamples = 1\nvalue = [1, 0]\nclass = y[0]"] ;
68 -> 69 ;
70 [label="entropy = 1.0\nsamples = 2\nvalue = [1, 1]\nclass = y[0]"] ;
68 -> 70 ;
71 [label="entropy = 0.0\nsamples = 1\nvalue = [0, 1]\nclass = y[1]"] ;
67 -> 71 ;
72 [label="x[11] <= 0.615\nentropy = 0.954\nsamples = 8\nvalue = [3, 5]\nclass = y[1]"] ;
64 -> 72 ;
73 [label="x[4] <= -0.349\nentropy = 1.0\nsamples = 6\nvalue = [3, 3]\nclass = y[0]"] ;
72 -> 73 ;
74 [label="x[9] <= 0.119\nentropy = 0.971\nsamples = 5\nvalue = [3, 2]\nclass = y[0]"] ;
73 -> 74 ;
75 [label="x[3] <= -1.231\nentropy = 0.918\nsamples = 3\nvalue = [1, 2]\nclass = y[1]"] ;
74 -> 75 ;
76 [label="entropy = 0.0\nsamples = 1\nvalue = [0, 1]\nclass = y[1]"] ;
75 -> 76 ;
77 [label="x[3] <= -1.18\nentropy = 1.0\nsamples = 2\nvalue = [1, 1]\nclass = y[0]"] ;
75 -> 77 ;
78 [label="entropy = 0.0\nsamples = 1\nvalue = [1, 0]\nclass = y[0]"] ;
77 -> 78 ;
79 [label="entropy = 0.0\nsamples = 1\nvalue = [0, 1]\nclass = y[1]"] ;
77 -> 79 ;
80 [label="entropy = 0.0\nsamples = 2\nvalue = [2, 0]\nclass = y[0]"] ;
74 -> 80 ;
81 [label="entropy = 0.0\nsamples = 1\nvalue = [0, 1]\nclass = y[1]"] ;
73 -> 81 ;
82 [label="entropy = 0.0\nsamples = 2\nvalue = [0, 2]\nclass = y[1]"] ;
72 -> 82 ;
83 [label="entropy = 0.0\nsamples = 1\nvalue = [0, 1]\nclass = y[1]"] ;
59 -> 83 ;
84 [label="entropy = 0.0\nsamples = 1\nvalue = [1, 0]\nclass = y[0]"] ;
58 -> 84 ;
85 [label="entropy = 0.0\nsamples = 1\nvalue = [0, 1]\nclass = y[1]"] ;
57 -> 85 ;
86 [label="entropy = 0.0\nsamples = 1\nvalue = [1, 0]\nclass = y[0]"] ;
56 -> 86 ;
87 [label="x[3] <= 0.056\nentropy = 0.811\nsamples = 24\nvalue = [6, 18]\nclass = y[1]"] ;
55 -> 87 ;
88 [label="x[4] <= -0.499\nentropy = 0.755\nsamples = 23\nvalue = [5, 18]\nclass = y[1]"] ;
87 -> 88 ;
89 [label="entropy = 0.0\nsamples = 1\nvalue = [1, 0]\nclass = y[0]"] ;
88 -> 89 ;
90 [label="x[11] <= 0.55\nentropy = 0.684\nsamples = 22\nvalue = [4, 18]\nclass = y[1]"] ;
88 -> 90 ;
91 [label="entropy = 0.0\nsamples = 4\nvalue = [0, 4]\nclass = y[1]"] ;
90 -> 91 ;
92 [label="x[4] <= -0.488\nentropy = 0.764\nsamples = 18\nvalue = [4, 14]\nclass = y[1]"] ;
90 -> 92 ;
93 [label="entropy = 0.0\nsamples = 1\nvalue = [1, 0]\nclass = y[0]"] ;
92 -> 93 ;
94 [label="x[4] <= -0.479\nentropy = 0.672\nsamples = 17\nvalue = [3, 14]\nclass = y[1]"] ;
92 -> 94 ;
95 [label="x[3] <= -0.479\nentropy = 0.544\nsamples = 16\nvalue = [2, 14]\nclass = y[1]"] ;
94 -> 95 ;
96 [label="x[3] <= -0.885\nentropy = 0.811\nsamples = 4\nvalue = [1, 3]\nclass = y[1]"] ;
95 -> 96 ;
97 [label="entropy = 0.0\nsamples = 1\nvalue = [0, 1]\nclass = y[1]"] ;
96 -> 97 ;
98 [label="x[4] <= -0.485\nentropy = 0.918\nsamples = 3\nvalue = [1, 2]\nclass = y[1]"] ;
96 -> 98 ;
99 [label="x[3] <= -0.625\nentropy = 1.0\nsamples = 2\nvalue = [1, 1]\nclass = y[0]"] ;
98 -> 99 ;
100 [label="entropy = 0.0\nsamples = 1\nvalue = [1, 0]\nclass = y[0]"] ;
99 -> 100 ;
101 [label="entropy = 0.0\nsamples = 1\nvalue = [0, 1]\nclass = y[1]"] ;
99 -> 101 ;
102 [label="entropy = 0.0\nsamples = 1\nvalue = [0, 1]\nclass = y[1]"] ;
98 -> 102 ;
103 [label="x[4] <= -0.486\nentropy = 0.414\nsamples = 12\nvalue = [1, 11]\nclass = y[1]"] ;
95 -> 103 ;
104 [label="x[4] <= -0.487\nentropy = 0.544\nsamples = 8\nvalue = [1, 7]\nclass = y[1]"] ;
103 -> 104 ;
105 [label="entropy = 0.0\nsamples = 1\nvalue = [0, 1]\nclass = y[1]"] ;
104 -> 105 ;
106 [label="entropy = 0.592\nsamples = 7\nvalue = [1, 6]\nclass = y[1]"] ;
104 -> 106 ;
107 [label="entropy = 0.0\nsamples = 4\nvalue = [0, 4]\nclass = y[1]"] ;
103 -> 107 ;
108 [label="entropy = 0.0\nsamples = 1\nvalue = [1, 0]\nclass = y[0]"] ;
94 -> 108 ;
109 [label="entropy = 0.0\nsamples = 1\nvalue = [1, 0]\nclass = y[0]"] ;
87 -> 109 ;
110 [label="x[7] <= 0.045\nentropy = 1.0\nsamples = 50\nvalue = [25, 25]\nclass = y[0]"] ;
54 -> 110 ;
111 [label="x[4] <= -0.402\nentropy = 0.996\nsamples = 43\nvalue = [23, 20]\nclass = y[0]"] ;
110 -> 111 ;
112 [label="x[4] <= -0.483\nentropy = 0.975\nsamples = 27\nvalue = [16, 11]\nclass = y[0]"] ;
111 -> 112 ;
113 [label="x[3] <= -0.487\nentropy = 0.985\nsamples = 14\nvalue = [6, 8]\nclass = y[1]"] ;
112 -> 113 ;
114 [label="x[4] <= -0.489\nentropy = 0.811\nsamples = 8\nvalue = [2, 6]\nclass = y[1]"] ;
113 -> 114 ;
115 [label="entropy = 0.0\nsamples = 2\nvalue = [0, 2]\nclass = y[1]"] ;
114 -> 115 ;
116 [label="x[3] <= -0.599\nentropy = 0.918\nsamples = 6\nvalue = [2, 4]\nclass = y[1]"] ;
114 -> 116 ;
117 [label="x[3] <= -0.649\nentropy = 0.722\nsamples = 5\nvalue = [1, 4]\nclass = y[1]"] ;
116 -> 117 ;
118 [label="x[3] <= -0.894\nentropy = 0.918\nsamples = 3\nvalue = [1, 2]\nclass = y[1]"] ;
117 -> 118 ;
119 [label="entropy = 0.0\nsamples = 1\nvalue = [1, 0]\nclass = y[0]"] ;
118 -> 119 ;
120 [label="entropy = 0.0\nsamples = 2\nvalue = [0, 2]\nclass = y[1]"] ;
118 -> 120 ;
121 [label="entropy = 0.0\nsamples = 2\nvalue = [0, 2]\nclass = y[1]"] ;
117 -> 121 ;
122 [label="entropy = 0.0\nsamples = 1\nvalue = [1, 0]\nclass = y[0]"] ;
116 -> 122 ;
123 [label="x[4] <= -0.488\nentropy = 0.918\nsamples = 6\nvalue = [4, 2]\nclass = y[0]"] ;
113 -> 123 ;
124 [label="entropy = 0.0\nsamples = 1\nvalue = [1, 0]\nclass = y[0]"] ;
123 -> 124 ;
125 [label="x[4] <= -0.484\nentropy = 0.971\nsamples = 5\nvalue = [3, 2]\nclass = y[0]"] ;
123 -> 125 ;
126 [label="entropy = 0.0\nsamples = 3\nvalue = [3, 0]\nclass = y[0]"] ;
125 -> 126 ;
127 [label="entropy = 0.0\nsamples = 2\nvalue = [0, 2]\nclass = y[1]"] ;
125 -> 127 ;
128 [label="x[3] <= 1.349\nentropy = 0.779\nsamples = 13\nvalue = [10, 3]\nclass = y[0]"] ;
112 -> 128 ;
129 [label="x[2] <= 0.865\nentropy = 0.65\nsamples = 12\nvalue = [10, 2]\nclass = y[0]"] ;
128 -> 129 ;
130 [label="x[4] <= -0.465\nentropy = 0.439\nsamples = 11\nvalue = [10, 1]\nclass = y[0]"] ;
129 -> 130 ;
131 [label="entropy = 0.0\nsamples = 5\nvalue = [5, 0]\nclass = y[0]"] ;
130 -> 131 ;
132 [label="x[14] <= 0.302\nentropy = 0.65\nsamples = 6\nvalue = [5, 1]\nclass = y[0]"] ;
130 -> 132 ;
133 [label="entropy = 0.0\nsamples = 4\nvalue = [4, 0]\nclass = y[0]"] ;
132 -> 133 ;
134 [label="x[4] <= -0.439\nentropy = 1.0\nsamples = 2\nvalue = [1, 1]\nclass = y[0]"] ;
132 -> 134 ;
135 [label="entropy = 0.0\nsamples = 1\nvalue = [0, 1]\nclass = y[1]"] ;
134 -> 135 ;
136 [label="entropy = 0.0\nsamples = 1\nvalue = [1, 0]\nclass = y[0]"] ;
134 -> 136 ;
137 [label="entropy = 0.0\nsamples = 1\nvalue = [0, 1]\nclass = y[1]"] ;
129 -> 137 ;
138 [label="entropy = 0.0\nsamples = 1\nvalue = [0, 1]\nclass = y[1]"] ;
128 -> 138 ;
139 [label="x[2] <= 0.858\nentropy = 0.989\nsamples = 16\nvalue = [7, 9]\nclass = y[1]"] ;
111 -> 139 ;
140 [label="x[3] <= 0.73\nentropy = 0.881\nsamples = 10\nvalue = [3, 7]\nclass = y[1]"] ;
139 -> 140 ;
141 [label="x[1] <= 0.156\nentropy = 0.764\nsamples = 9\nvalue = [2, 7]\nclass = y[1]"] ;
140 -> 141 ;
142 [label="entropy = 0.0\nsamples = 2\nvalue = [0, 2]\nclass = y[1]"] ;
141 -> 142 ;
143 [label="x[3] <= -0.499\nentropy = 0.863\nsamples = 7\nvalue = [2, 5]\nclass = y[1]"] ;
141 -> 143 ;
144 [label="entropy = 0.0\nsamples = 1\nvalue = [1, 0]\nclass = y[0]"] ;
143 -> 144 ;
145 [label="x[2] <= 0.759\nentropy = 0.65\nsamples = 6\nvalue = [1, 5]\nclass = y[1]"] ;
143 -> 145 ;
146 [label="entropy = 0.0\nsamples = 4\nvalue = [0, 4]\nclass = y[1]"] ;
145 -> 146 ;
147 [label="x[4] <= -0.312\nentropy = 1.0\nsamples = 2\nvalue = [1, 1]\nclass = y[0]"] ;
145 -> 147 ;
148 [label="entropy = 0.0\nsamples = 1\nvalue = [1, 0]\nclass = y[0]"] ;
147 -> 148 ;
149 [label="entropy = 0.0\nsamples = 1\nvalue = [0, 1]\nclass = y[1]"] ;
147 -> 149 ;
150 [label="entropy = 0.0\nsamples = 1\nvalue = [1, 0]\nclass = y[0]"] ;
140 -> 150 ;
151 [label="x[4] <= -0.262\nentropy = 0.918\nsamples = 6\nvalue = [4, 2]\nclass = y[0]"] ;
139 -> 151 ;
152 [label="entropy = 0.0\nsamples = 1\nvalue = [0, 1]\nclass = y[1]"] ;
151 -> 152 ;
153 [label="x[2] <= 3.016\nentropy = 0.722\nsamples = 5\nvalue = [4, 1]\nclass = y[0]"] ;
151 -> 153 ;
154 [label="entropy = 0.0\nsamples = 2\nvalue = [2, 0]\nclass = y[0]"] ;
153 -> 154 ;
155 [label="x[4] <= -0.054\nentropy = 0.918\nsamples = 3\nvalue = [2, 1]\nclass = y[0]"] ;
153 -> 155 ;
156 [label="entropy = 0.0\nsamples = 1\nvalue = [1, 0]\nclass = y[0]"] ;
155 -> 156 ;
157 [label="x[3] <= 0.702\nentropy = 1.0\nsamples = 2\nvalue = [1, 1]\nclass = y[0]"] ;
155 -> 157 ;
158 [label="entropy = 0.0\nsamples = 1\nvalue = [0, 1]\nclass = y[1]"] ;
157 -> 158 ;
159 [label="entropy = 0.0\nsamples = 1\nvalue = [1, 0]\nclass = y[0]"] ;
157 -> 159 ;
160 [label="x[3] <= -1.868\nentropy = 0.863\nsamples = 7\nvalue = [2, 5]\nclass = y[1]"] ;
110 -> 160 ;
161 [label="x[3] <= -2.136\nentropy = 0.65\nsamples = 6\nvalue = [1, 5]\nclass = y[1]"] ;
160 -> 161 ;
162 [label="x[3] <= -2.209\nentropy = 0.918\nsamples = 3\nvalue = [1, 2]\nclass = y[1]"] ;
161 -> 162 ;
163 [label="entropy = 0.0\nsamples = 1\nvalue = [0, 1]\nclass = y[1]"] ;
162 -> 163 ;
164 [label="x[4] <= -0.433\nentropy = 1.0\nsamples = 2\nvalue = [1, 1]\nclass = y[0]"] ;
162 -> 164 ;
165 [label="entropy = 0.0\nsamples = 1\nvalue = [1, 0]\nclass = y[0]"] ;
164 -> 165 ;
166 [label="entropy = 0.0\nsamples = 1\nvalue = [0, 1]\nclass = y[1]"] ;
164 -> 166 ;
167 [label="entropy = 0.0\nsamples = 3\nvalue = [0, 3]\nclass = y[1]"] ;
161 -> 167 ;
168 [label="entropy = 0.0\nsamples = 1\nvalue = [1, 0]\nclass = y[0]"] ;
160 -> 168 ;
169 [label="entropy = 0.0\nsamples = 3\nvalue = [3, 0]\nclass = y[0]"] ;
53 -> 169 ;
170 [label="entropy = 0.0\nsamples = 6\nvalue = [0, 6]\nclass = y[1]"] ;
52 -> 170 ;
171 [label="x[10] <= 0.31\nentropy = 0.663\nsamples = 29\nvalue = [24, 5]\nclass = y[0]"] ;
51 -> 171 ;
172 [label="x[4] <= -0.41\nentropy = 0.503\nsamples = 27\nvalue = [24, 3]\nclass = y[0]"] ;
171 -> 172 ;
173 [label="entropy = 0.0\nsamples = 1\nvalue = [0, 1]\nclass = y[1]"] ;
172 -> 173 ;
174 [label="x[5] <= 0.896\nentropy = 0.391\nsamples = 26\nvalue = [24, 2]\nclass = y[0]"] ;
172 -> 174 ;
175 [label="entropy = 0.0\nsamples = 13\nvalue = [13, 0]\nclass = y[0]"] ;
174 -> 175 ;
176 [label="x[11] <= 0.282\nentropy = 0.619\nsamples = 13\nvalue = [11, 2]\nclass = y[0]"] ;
174 -> 176 ;
177 [label="x[7] <= 0.015\nentropy = 0.414\nsamples = 12\nvalue = [11, 1]\nclass = y[0]"] ;
176 -> 177 ;
178 [label="entropy = 0.0\nsamples = 5\nvalue = [5, 0]\nclass = y[0]"] ;
177 -> 178 ;
179 [label="x[3] <= -1.873\nentropy = 0.592\nsamples = 7\nvalue = [6, 1]\nclass = y[0]"] ;
177 -> 179 ;
180 [label="x[3] <= -2.096\nentropy = 0.811\nsamples = 4\nvalue = [3, 1]\nclass = y[0]"] ;
179 -> 180 ;
181 [label="entropy = 0.0\nsamples = 3\nvalue = [3, 0]\nclass = y[0]"] ;
180 -> 181 ;
182 [label="entropy = 0.0\nsamples = 1\nvalue = [0, 1]\nclass = y[1]"] ;
180 -> 182 ;
183 [label="entropy = 0.0\nsamples = 3\nvalue = [3, 0]\nclass = y[0]"] ;
179 -> 183 ;
184 [label="entropy = 0.0\nsamples = 1\nvalue = [0, 1]\nclass = y[1]"] ;
176 -> 184 ;
185 [label="entropy = 0.0\nsamples = 2\nvalue = [0, 2]\nclass = y[1]"] ;
171 -> 185 ;
186 [label="x[10] <= 0.639\nentropy = 0.687\nsamples = 426\nvalue = [348, 78]\nclass = y[0]"] ;
0 -> 186 [labeldistance=2.5, labelangle=-45, headlabel="False"] ;
187 [label="x[0] <= 0.013\nentropy = 0.623\nsamples = 354\nvalue = [299, 55]\nclass = y[0]"] ;
186 -> 187 ;
188 [label="x[0] <= -0.35\nentropy = 0.728\nsamples = 133\nvalue = [106, 27]\nclass = y[0]"] ;
187 -> 188 ;
189 [label="x[1] <= 1.808\nentropy = 0.924\nsamples = 62\nvalue = [41, 21]\nclass = y[0]"] ;
188 -> 189 ;
190 [label="x[4] <= -0.368\nentropy = 0.929\nsamples = 61\nvalue = [40, 21]\nclass = y[0]"] ;
189 -> 190 ;
191 [label="entropy = 0.0\nsamples = 6\nvalue = [6, 0]\nclass = y[0]"] ;
190 -> 191 ;
192 [label="x[3] <= 1.603\nentropy = 0.959\nsamples = 55\nvalue = [34, 21]\nclass = y[0]"] ;
190 -> 192 ;
193 [label="x[2] <= 0.797\nentropy = 0.996\nsamples = 41\nvalue = [22, 19]\nclass = y[0]"] ;
192 -> 193 ;
194 [label="x[4] <= 1.68\nentropy = 0.993\nsamples = 40\nvalue = [22, 18]\nclass = y[0]"] ;
193 -> 194 ;
195 [label="x[1] <= 0.946\nentropy = 0.998\nsamples = 38\nvalue = [20, 18]\nclass = y[0]"] ;
194 -> 195 ;
196 [label="x[3] <= -0.112\nentropy = 0.999\nsamples = 37\nvalue = [19, 18]\nclass = y[0]"] ;
195 -> 196 ;
197 [label="x[3] <= -0.611\nentropy = 0.811\nsamples = 4\nvalue = [1, 3]\nclass = y[1]"] ;
196 -> 197 ;
198 [label="entropy = 0.0\nsamples = 1\nvalue = [1, 0]\nclass = y[0]"] ;
197 -> 198 ;
199 [label="entropy = 0.0\nsamples = 3\nvalue = [0, 3]\nclass = y[1]"] ;
197 -> 199 ;
200 [label="x[2] <= -0.012\nentropy = 0.994\nsamples = 33\nvalue = [18, 15]\nclass = y[0]"] ;
196 -> 200 ;
201 [label="x[4] <= -0.008\nentropy = 0.989\nsamples = 32\nvalue = [18, 14]\nclass = y[0]"] ;
200 -> 201 ;
202 [label="x[4] <= -0.136\nentropy = 0.971\nsamples = 15\nvalue = [6, 9]\nclass = y[1]"] ;
201 -> 202 ;
203 [label="entropy = 0.0\nsamples = 1\nvalue = [1, 0]\nclass = y[0]"] ;
202 -> 203 ;
204 [label="x[4] <= -0.097\nentropy = 0.94\nsamples = 14\nvalue = [5, 9]\nclass = y[1]"] ;
202 -> 204 ;
205 [label="x[4] <= -0.132\nentropy = 0.764\nsamples = 9\nvalue = [2, 7]\nclass = y[1]"] ;
204 -> 205 ;
206 [label="entropy = 0.0\nsamples = 2\nvalue = [0, 2]\nclass = y[1]"] ;
205 -> 206 ;
207 [label="x[4] <= -0.131\nentropy = 0.863\nsamples = 7\nvalue = [2, 5]\nclass = y[1]"] ;
205 -> 207 ;
208 [label="entropy = 0.0\nsamples = 1\nvalue = [0, 1]\nclass = y[1]"] ;
207 -> 208 ;
209 [label="x[3] <= 0.312\nentropy = 0.918\nsamples = 6\nvalue = [2, 4]\nclass = y[1]"] ;
207 -> 209 ;
210 [label="entropy = 1.0\nsamples = 2\nvalue = [1, 1]\nclass = y[0]"] ;
209 -> 210 ;
211 [label="x[3] <= 1.329\nentropy = 0.811\nsamples = 4\nvalue = [1, 3]\nclass = y[1]"] ;
209 -> 211 ;
212 [label="x[3] <= 0.64\nentropy = 0.918\nsamples = 3\nvalue = [1, 2]\nclass = y[1]"] ;
211 -> 212 ;
213 [label="entropy = 0.0\nsamples = 1\nvalue = [0, 1]\nclass = y[1]"] ;
212 -> 213 ;
214 [label="entropy = 1.0\nsamples = 2\nvalue = [1, 1]\nclass = y[0]"] ;
212 -> 214 ;
215 [label="entropy = 0.0\nsamples = 1\nvalue = [0, 1]\nclass = y[1]"] ;
211 -> 215 ;
216 [label="x[4] <= -0.069\nentropy = 0.971\nsamples = 5\nvalue = [3, 2]\nclass = y[0]"] ;
204 -> 216 ;
217 [label="entropy = 0.0\nsamples = 1\nvalue = [1, 0]\nclass = y[0]"] ;
216 -> 217 ;
218 [label="x[4] <= -0.045\nentropy = 1.0\nsamples = 4\nvalue = [2, 2]\nclass = y[0]"] ;
216 -> 218 ;
219 [label="x[4] <= -0.053\nentropy = 0.918\nsamples = 3\nvalue = [1, 2]\nclass = y[1]"] ;
218 -> 219 ;
220 [label="entropy = 1.0\nsamples = 2\nvalue = [1, 1]\nclass = y[0]"] ;
219 -> 220 ;
221 [label="entropy = 0.0\nsamples = 1\nvalue = [0, 1]\nclass = y[1]"] ;
219 -> 221 ;
222 [label="entropy = 0.0\nsamples = 1\nvalue = [1, 0]\nclass = y[0]"] ;
218 -> 222 ;
223 [label="x[14] <= 0.554\nentropy = 0.874\nsamples = 17\nvalue = [12, 5]\nclass = y[0]"] ;
201 -> 223 ;
224 [label="x[4] <= 0.942\nentropy = 0.991\nsamples = 9\nvalue = [5, 4]\nclass = y[0]"] ;
223 -> 224 ;
225 [label="x[3] <= 1.336\nentropy = 0.954\nsamples = 8\nvalue = [5, 3]\nclass = y[0]"] ;
224 -> 225 ;
226 [label="x[4] <= 0.367\nentropy = 0.863\nsamples = 7\nvalue = [5, 2]\nclass = y[0]"] ;
225 -> 226 ;
227 [label="entropy = 0.0\nsamples = 1\nvalue = [1, 0]\nclass = y[0]"] ;
226 -> 227 ;
228 [label="x[4] <= 0.717\nentropy = 0.918\nsamples = 6\nvalue = [4, 2]\nclass = y[0]"] ;
226 -> 228 ;
229 [label="x[4] <= 0.501\nentropy = 0.971\nsamples = 5\nvalue = [3, 2]\nclass = y[0]"] ;
228 -> 229 ;
230 [label="x[3] <= 0.921\nentropy = 0.918\nsamples = 3\nvalue = [1, 2]\nclass = y[1]"] ;
229 -> 230 ;
231 [label="entropy = 1.0\nsamples = 2\nvalue = [1, 1]\nclass = y[0]"] ;
230 -> 231 ;
232 [label="entropy = 0.0\nsamples = 1\nvalue = [0, 1]\nclass = y[1]"] ;
230 -> 232 ;
233 [label="entropy = 0.0\nsamples = 2\nvalue = [2, 0]\nclass = y[0]"] ;
229 -> 233 ;
234 [label="entropy = 0.0\nsamples = 1\nvalue = [1, 0]\nclass = y[0]"] ;
228 -> 234 ;
235 [label="entropy = 0.0\nsamples = 1\nvalue = [0, 1]\nclass = y[1]"] ;
225 -> 235 ;
236 [label="entropy = 0.0\nsamples = 1\nvalue = [0, 1]\nclass = y[1]"] ;
224 -> 236 ;
237 [label="x[3] <= 0.219\nentropy = 0.544\nsamples = 8\nvalue = [7, 1]\nclass = y[0]"] ;
223 -> 237 ;
238 [label="x[4] <= 0.144\nentropy = 0.811\nsamples = 4\nvalue = [3, 1]\nclass = y[0]"] ;
237 -> 238 ;
239 [label="entropy = 0.0\nsamples = 1\nvalue = [0, 1]\nclass = y[1]"] ;
238 -> 239 ;
240 [label="entropy = 0.0\nsamples = 3\nvalue = [3, 0]\nclass = y[0]"] ;
238 -> 240 ;
241 [label="entropy = 0.0\nsamples = 4\nvalue = [4, 0]\nclass = y[0]"] ;
237 -> 241 ;
242 [label="entropy = 0.0\nsamples = 1\nvalue = [0, 1]\nclass = y[1]"] ;
200 -> 242 ;
243 [label="entropy = 0.0\nsamples = 1\nvalue = [1, 0]\nclass = y[0]"] ;
195 -> 243 ;
244 [label="entropy = 0.0\nsamples = 2\nvalue = [2, 0]\nclass = y[0]"] ;
194 -> 244 ;
245 [label="entropy = 0.0\nsamples = 1\nvalue = [0, 1]\nclass = y[1]"] ;
193 -> 245 ;
246 [label="x[1] <= 1.4\nentropy = 0.592\nsamples = 14\nvalue = [12, 2]\nclass = y[0]"] ;
192 -> 246 ;
247 [label="x[3] <= 2.346\nentropy = 0.391\nsamples = 13\nvalue = [12, 1]\nclass = y[0]"] ;
246 -> 247 ;
248 [label="x[4] <= 0.151\nentropy = 0.65\nsamples = 6\nvalue = [5, 1]\nclass = y[0]"] ;
247 -> 248 ;
249 [label="x[3] <= 1.944\nentropy = 1.0\nsamples = 2\nvalue = [1, 1]\nclass = y[0]"] ;
248 -> 249 ;
250 [label="entropy = 0.0\nsamples = 1\nvalue = [0, 1]\nclass = y[1]"] ;
249 -> 250 ;
251 [label="entropy = 0.0\nsamples = 1\nvalue = [1, 0]\nclass = y[0]"] ;
249 -> 251 ;
252 [label="entropy = 0.0\nsamples = 4\nvalue = [4, 0]\nclass = y[0]"] ;
248 -> 252 ;
253 [label="entropy = 0.0\nsamples = 7\nvalue = [7, 0]\nclass = y[0]"] ;
247 -> 253 ;
254 [label="entropy = 0.0\nsamples = 1\nvalue = [0, 1]\nclass = y[1]"] ;
246 -> 254 ;
255 [label="entropy = 0.0\nsamples = 1\nvalue = [1, 0]\nclass = y[0]"] ;
189 -> 255 ;
256 [label="x[2] <= 0.428\nentropy = 0.418\nsamples = 71\nvalue = [65, 6]\nclass = y[0]"] ;
188 -> 256 ;
257 [label="x[3] <= 1.833\nentropy = 0.439\nsamples = 66\nvalue = [60, 6]\nclass = y[0]"] ;
256 -> 257 ;
258 [label="x[4] <= 0.606\nentropy = 0.459\nsamples = 62\nvalue = [56, 6]\nclass = y[0]"] ;
257 -> 258 ;
259 [label="x[3] <= 0.276\nentropy = 0.48\nsamples = 58\nvalue = [52, 6]\nclass = y[0]"] ;
258 -> 259 ;
260 [label="x[4] <= -0.615\nentropy = 0.513\nsamples = 35\nvalue = [31, 4]\nclass = y[0]"] ;
259 -> 260 ;
261 [label="entropy = 0.0\nsamples = 5\nvalue = [5, 0]\nclass = y[0]"] ;
260 -> 261 ;
262 [label="x[3] <= -0.121\nentropy = 0.567\nsamples = 30\nvalue = [26, 4]\nclass = y[0]"] ;
260 -> 262 ;
263 [label="x[3] <= -0.42\nentropy = 0.276\nsamples = 21\nvalue = [20, 1]\nclass = y[0]"] ;
262 -> 263 ;
264 [label="x[4] <= -0.413\nentropy = 0.414\nsamples = 12\nvalue = [11, 1]\nclass = y[0]"] ;
263 -> 264 ;
265 [label="x[4] <= -0.427\nentropy = 0.65\nsamples = 6\nvalue = [5, 1]\nclass = y[0]"] ;
264 -> 265 ;
266 [label="x[3] <= -0.476\nentropy = 0.918\nsamples = 3\nvalue = [2, 1]\nclass = y[0]"] ;
265 -> 266 ;
267 [label="x[3] <= -0.651\nentropy = 1.0\nsamples = 2\nvalue = [1, 1]\nclass = y[0]"] ;
266 -> 267 ;
268 [label="entropy = 0.0\nsamples = 1\nvalue = [0, 1]\nclass = y[1]"] ;
267 -> 268 ;
269 [label="entropy = 0.0\nsamples = 1\nvalue = [1, 0]\nclass = y[0]"] ;
267 -> 269 ;
270 [label="entropy = 0.0\nsamples = 1\nvalue = [1, 0]\nclass = y[0]"] ;
266 -> 270 ;
271 [label="entropy = 0.0\nsamples = 3\nvalue = [3, 0]\nclass = y[0]"] ;
265 -> 271 ;
272 [label="entropy = 0.0\nsamples = 6\nvalue = [6, 0]\nclass = y[0]"] ;
264 -> 272 ;
273 [label="entropy = 0.0\nsamples = 9\nvalue = [9, 0]\nclass = y[0]"] ;
263 -> 273 ;
274 [label="x[4] <= -0.187\nentropy = 0.918\nsamples = 9\nvalue = [6, 3]\nclass = y[0]"] ;
262 -> 274 ;
275 [label="x[1] <= 0.49\nentropy = 0.811\nsamples = 8\nvalue = [6, 2]\nclass = y[0]"] ;
274 -> 275 ;
276 [label="x[4] <= -0.43\nentropy = 0.863\nsamples = 7\nvalue = [5, 2]\nclass = y[0]"] ;
275 -> 276 ;
277 [label="entropy = 0.0\nsamples = 3\nvalue = [3, 0]\nclass = y[0]"] ;
276 -> 277 ;
278 [label="x[3] <= 0.013\nentropy = 1.0\nsamples = 4\nvalue = [2, 2]\nclass = y[0]"] ;
276 -> 278 ;
279 [label="entropy = 0.0\nsamples = 1\nvalue = [0, 1]\nclass = y[1]"] ;
278 -> 279 ;
280 [label="x[3] <= 0.051\nentropy = 0.918\nsamples = 3\nvalue = [2, 1]\nclass = y[0]"] ;
278 -> 280 ;
281 [label="entropy = 0.0\nsamples = 2\nvalue = [2, 0]\nclass = y[0]"] ;
280 -> 281 ;
282 [label="entropy = 0.0\nsamples = 1\nvalue = [0, 1]\nclass = y[1]"] ;
280 -> 282 ;
283 [label="entropy = 0.0\nsamples = 1\nvalue = [1, 0]\nclass = y[0]"] ;
275 -> 283 ;
284 [label="entropy = 0.0\nsamples = 1\nvalue = [0, 1]\nclass = y[1]"] ;
274 -> 284 ;
285 [label="x[4] <= -0.209\nentropy = 0.426\nsamples = 23\nvalue = [21, 2]\nclass = y[0]"] ;
259 -> 285 ;
286 [label="x[13] <= 0.943\nentropy = 0.523\nsamples = 17\nvalue = [15, 2]\nclass = y[0]"] ;
285 -> 286 ;
287 [label="x[4] <= -0.434\nentropy = 0.544\nsamples = 16\nvalue = [14, 2]\nclass = y[0]"] ;
286 -> 287 ;
288 [label="entropy = 0.0\nsamples = 2\nvalue = [2, 0]\nclass = y[0]"] ;
287 -> 288 ;
289 [label="x[3] <= 1.251\nentropy = 0.592\nsamples = 14\nvalue = [12, 2]\nclass = y[0]"] ;
287 -> 289 ;
290 [label="x[3] <= 0.904\nentropy = 0.811\nsamples = 8\nvalue = [6, 2]\nclass = y[0]"] ;
289 -> 290 ;
291 [label="x[3] <= 0.647\nentropy = 0.65\nsamples = 6\nvalue = [5, 1]\nclass = y[0]"] ;
290 -> 291 ;
292 [label="x[3] <= 0.497\nentropy = 0.811\nsamples = 4\nvalue = [3, 1]\nclass = y[0]"] ;
291 -> 292 ;
293 [label="entropy = 0.918\nsamples = 3\nvalue = [2, 1]\nclass = y[0]"] ;
292 -> 293 ;
294 [label="entropy = 0.0\nsamples = 1\nvalue = [1, 0]\nclass = y[0]"] ;
292 -> 294 ;
295 [label="entropy = 0.0\nsamples = 2\nvalue = [2, 0]\nclass = y[0]"] ;
291 -> 295 ;
296 [label="entropy = 1.0\nsamples = 2\nvalue = [1, 1]\nclass = y[0]"] ;
290 -> 296 ;
297 [label="entropy = 0.0\nsamples = 6\nvalue = [6, 0]\nclass = y[0]"] ;
289 -> 297 ;
298 [label="entropy = 0.0\nsamples = 1\nvalue = [1, 0]\nclass = y[0]"] ;
286 -> 298 ;
299 [label="entropy = 0.0\nsamples = 6\nvalue = [6, 0]\nclass = y[0]"] ;
285 -> 299 ;
300 [label="entropy = 0.0\nsamples = 4\nvalue = [4, 0]\nclass = y[0]"] ;
258 -> 300 ;
301 [label="entropy = 0.0\nsamples = 4\nvalue = [4, 0]\nclass = y[0]"] ;
257 -> 301 ;
302 [label="entropy = 0.0\nsamples = 5\nvalue = [5, 0]\nclass = y[0]"] ;
256 -> 302 ;
303 [label="x[14] <= 0.523\nentropy = 0.548\nsamples = 221\nvalue = [193, 28]\nclass = y[0]"] ;
187 -> 303 ;
304 [label="x[12] <= 0.051\nentropy = 0.191\nsamples = 34\nvalue = [33, 1]\nclass = y[0]"] ;
303 -> 304 ;
305 [label="x[4] <= -0.269\nentropy = 0.722\nsamples = 5\nvalue = [4, 1]\nclass = y[0]"] ;
304 -> 305 ;
306 [label="entropy = 0.0\nsamples = 4\nvalue = [4, 0]\nclass = y[0]"] ;
305 -> 306 ;
307 [label="entropy = 0.0\nsamples = 1\nvalue = [0, 1]\nclass = y[1]"] ;
305 -> 307 ;
308 [label="entropy = 0.0\nsamples = 29\nvalue = [29, 0]\nclass = y[0]"] ;
304 -> 308 ;
309 [label="x[4] <= 0.1\nentropy = 0.596\nsamples = 187\nvalue = [160, 27]\nclass = y[0]"] ;
303 -> 309 ;
310 [label="x[4] <= -0.239\nentropy = 0.536\nsamples = 180\nvalue = [158, 22]\nclass = y[0]"] ;
309 -> 310 ;
311 [label="x[3] <= 1.565\nentropy = 0.542\nsamples = 177\nvalue = [155, 22]\nclass = y[0]"] ;
310 -> 311 ;
312 [label="x[3] <= 0.049\nentropy = 0.556\nsamples = 170\nvalue = [148, 22]\nclass = y[0]"] ;
311 -> 312 ;
313 [label="x[4] <= -0.565\nentropy = 0.516\nsamples = 130\nvalue = [115, 15]\nclass = y[0]"] ;
312 -> 313 ;
314 [label="x[3] <= -0.467\nentropy = 1.0\nsamples = 2\nvalue = [1, 1]\nclass = y[0]"] ;
313 -> 314 ;
315 [label="entropy = 0.0\nsamples = 1\nvalue = [1, 0]\nclass = y[0]"] ;
314 -> 315 ;
316 [label="entropy = 0.0\nsamples = 1\nvalue = [0, 1]\nclass = y[1]"] ;
314 -> 316 ;
317 [label="x[4] <= -0.374\nentropy = 0.498\nsamples = 128\nvalue = [114, 14]\nclass = y[0]"] ;
313 -> 317 ;
318 [label="x[3] <= -0.594\nentropy = 0.514\nsamples = 122\nvalue = [108, 14]\nclass = y[0]"] ;
317 -> 318 ;
319 [label="x[4] <= -0.479\nentropy = 0.414\nsamples = 48\nvalue = [44, 4]\nclass = y[0]"] ;
318 -> 319 ;
320 [label="x[3] <= -0.83\nentropy = 0.523\nsamples = 34\nvalue = [30, 4]\nclass = y[0]"] ;
319 -> 320 ;
321 [label="x[3] <= -1.07\nentropy = 0.811\nsamples = 12\nvalue = [9, 3]\nclass = y[0]"] ;
320 -> 321 ;
322 [label="entropy = 1.0\nsamples = 2\nvalue = [1, 1]\nclass = y[0]"] ;
321 -> 322 ;
323 [label="x[4] <= -0.491\nentropy = 0.722\nsamples = 10\nvalue = [8, 2]\nclass = y[0]"] ;
321 -> 323 ;
324 [label="entropy = 0.0\nsamples = 2\nvalue = [2, 0]\nclass = y[0]"] ;
323 -> 324 ;
325 [label="x[4] <= -0.482\nentropy = 0.811\nsamples = 8\nvalue = [6, 2]\nclass = y[0]"] ;
323 -> 325 ;
326 [label="entropy = 0.0\nsamples = 6\nvalue = [6, 0]\nclass = y[0]"] ;
325 -> 326 ;
327 [label="entropy = 0.0\nsamples = 2\nvalue = [0, 2]\nclass = y[1]"] ;
325 -> 327 ;
328 [label="x[4] <= -0.483\nentropy = 0.267\nsamples = 22\nvalue = [21, 1]\nclass = y[0]"] ;
320 -> 328 ;
329 [label="x[3] <= -0.661\nentropy = 0.371\nsamples = 14\nvalue = [13, 1]\nclass = y[0]"] ;
328 -> 329 ;
330 [label="x[4] <= -0.494\nentropy = 0.592\nsamples = 7\nvalue = [6, 1]\nclass = y[0]"] ;
329 -> 330 ;
331 [label="entropy = 0.0\nsamples = 2\nvalue = [2, 0]\nclass = y[0]"] ;
330 -> 331 ;
332 [label="x[4] <= -0.485\nentropy = 0.722\nsamples = 5\nvalue = [4, 1]\nclass = y[0]"] ;
330 -> 332 ;
333 [label="x[4] <= -0.486\nentropy = 0.918\nsamples = 3\nvalue = [2, 1]\nclass = y[0]"] ;
332 -> 333 ;
334 [label="entropy = 0.0\nsamples = 1\nvalue = [1, 0]\nclass = y[0]"] ;
333 -> 334 ;
335 [label="x[4] <= -0.485\nentropy = 1.0\nsamples = 2\nvalue = [1, 1]\nclass = y[0]"] ;
333 -> 335 ;
336 [label="entropy = 0.0\nsamples = 1\nvalue = [0, 1]\nclass = y[1]"] ;
335 -> 336 ;
337 [label="entropy = 0.0\nsamples = 1\nvalue = [1, 0]\nclass = y[0]"] ;
335 -> 337 ;
338 [label="entropy = 0.0\nsamples = 2\nvalue = [2, 0]\nclass = y[0]"] ;
332 -> 338 ;
339 [label="entropy = 0.0\nsamples = 7\nvalue = [7, 0]\nclass = y[0]"] ;
329 -> 339 ;
340 [label="entropy = 0.0\nsamples = 8\nvalue = [8, 0]\nclass = y[0]"] ;
328 -> 340 ;
341 [label="entropy = 0.0\nsamples = 14\nvalue = [14, 0]\nclass = y[0]"] ;
319 -> 341 ;
342 [label="x[4] <= -0.462\nentropy = 0.571\nsamples = 74\nvalue = [64, 10]\nclass = y[0]"] ;
318 -> 342 ;
343 [label="x[3] <= -0.108\nentropy = 0.523\nsamples = 68\nvalue = [60, 8]\nclass = y[0]"] ;
342 -> 343 ;
344 [label="x[4] <= -0.501\nentropy = 0.722\nsamples = 20\nvalue = [16, 4]\nclass = y[0]"] ;
343 -> 344 ;
345 [label="entropy = 0.0\nsamples = 1\nvalue = [0, 1]\nclass = y[1]"] ;
344 -> 345 ;
346 [label="x[4] <= -0.475\nentropy = 0.629\nsamples = 19\nvalue = [16, 3]\nclass = y[0]"] ;
344 -> 346 ;
347 [label="x[4] <= -0.487\nentropy = 0.503\nsamples = 18\nvalue = [16, 2]\nclass = y[0]"] ;
346 -> 347 ;
348 [label="x[3] <= -0.418\nentropy = 0.722\nsamples = 5\nvalue = [4, 1]\nclass = y[0]"] ;
347 -> 348 ;
349 [label="x[4] <= -0.499\nentropy = 1.0\nsamples = 2\nvalue = [1, 1]\nclass = y[0]"] ;
348 -> 349 ;
350 [label="entropy = 0.0\nsamples = 1\nvalue = [1, 0]\nclass = y[0]"] ;
349 -> 350 ;
351 [label="entropy = 0.0\nsamples = 1\nvalue = [0, 1]\nclass = y[1]"] ;
349 -> 351 ;
352 [label="entropy = 0.0\nsamples = 3\nvalue = [3, 0]\nclass = y[0]"] ;
348 -> 352 ;
353 [label="x[3] <= -0.33\nentropy = 0.391\nsamples = 13\nvalue = [12, 1]\nclass = y[0]"] ;
347 -> 353 ;
354 [label="entropy = 0.0\nsamples = 4\nvalue = [4, 0]\nclass = y[0]"] ;
353 -> 354 ;
355 [label="x[4] <= -0.485\nentropy = 0.503\nsamples = 9\nvalue = [8, 1]\nclass = y[0]"] ;
353 -> 355 ;
356 [label="x[3] <= -0.147\nentropy = 0.918\nsamples = 3\nvalue = [2, 1]\nclass = y[0]"] ;
355 -> 356 ;
357 [label="x[3] <= -0.236\nentropy = 1.0\nsamples = 2\nvalue = [1, 1]\nclass = y[0]"] ;
356 -> 357 ;
358 [label="entropy = 0.0\nsamples = 1\nvalue = [1, 0]\nclass = y[0]"] ;
357 -> 358 ;
359 [label="entropy = 0.0\nsamples = 1\nvalue = [0, 1]\nclass = y[1]"] ;
357 -> 359 ;
360 [label="entropy = 0.0\nsamples = 1\nvalue = [1, 0]\nclass = y[0]"] ;
356 -> 360 ;
361 [label="entropy = 0.0\nsamples = 6\nvalue = [6, 0]\nclass = y[0]"] ;
355 -> 361 ;
362 [label="entropy = 0.0\nsamples = 1\nvalue = [0, 1]\nclass = y[1]"] ;
346 -> 362 ;
363 [label="x[4] <= -0.496\nentropy = 0.414\nsamples = 48\nvalue = [44, 4]\nclass = y[0]"] ;
343 -> 363 ;
364 [label="entropy = 0.0\nsamples = 6\nvalue = [6, 0]\nclass = y[0]"] ;
363 -> 364 ;
365 [label="x[3] <= -0.02\nentropy = 0.454\nsamples = 42\nvalue = [38, 4]\nclass = y[0]"] ;
363 -> 365 ;
366 [label="x[12] <= 0.514\nentropy = 0.477\nsamples = 39\nvalue = [35, 4]\nclass = y[0]"] ;
365 -> 366 ;
367 [label="x[4] <= -0.48\nentropy = 0.592\nsamples = 14\nvalue = [12, 2]\nclass = y[0]"] ;
366 -> 367 ;
368 [label="x[4] <= -0.485\nentropy = 0.619\nsamples = 13\nvalue = [11, 2]\nclass = y[0]"] ;
367 -> 368 ;
369 [label="x[4] <= -0.487\nentropy = 0.65\nsamples = 12\nvalue = [10, 2]\nclass = y[0]"] ;
368 -> 369 ;
370 [label="entropy = 0.0\nsamples = 4\nvalue = [4, 0]\nclass = y[0]"] ;
369 -> 370 ;
371 [label="entropy = 0.811\nsamples = 8\nvalue = [6, 2]\nclass = y[0]"] ;
369 -> 371 ;
372 [label="entropy = 0.0\nsamples = 1\nvalue = [1, 0]\nclass = y[0]"] ;
368 -> 372 ;
373 [label="entropy = 0.0\nsamples = 1\nvalue = [1, 0]\nclass = y[0]"] ;
367 -> 373 ;
374 [label="x[4] <= -0.481\nentropy = 0.402\nsamples = 25\nvalue = [23, 2]\nclass = y[0]"] ;
366 -> 374 ;
375 [label="x[4] <= -0.492\nentropy = 0.391\nsamples = 13\nvalue = [12, 1]\nclass = y[0]"] ;
374 -> 375 ;
376 [label="entropy = 0.0\nsamples = 1\nvalue = [1, 0]\nclass = y[0]"] ;
375 -> 376 ;
377 [label="x[4] <= -0.486\nentropy = 0.414\nsamples = 12\nvalue = [11, 1]\nclass = y[0]"] ;
375 -> 377 ;
378 [label="x[4] <= -0.49\nentropy = 0.918\nsamples = 3\nvalue = [2, 1]\nclass = y[0]"] ;
377 -> 378 ;
379 [label="entropy = 0.0\nsamples = 1\nvalue = [1, 0]\nclass = y[0]"] ;
378 -> 379 ;
380 [label="entropy = 1.0\nsamples = 2\nvalue = [1, 1]\nclass = y[0]"] ;
378 -> 380 ;
381 [label="entropy = 0.0\nsamples = 9\nvalue = [9, 0]\nclass = y[0]"] ;
377 -> 381 ;
382 [label="x[4] <= -0.481\nentropy = 0.414\nsamples = 12\nvalue = [11, 1]\nclass = y[0]"] ;
374 -> 382 ;
383 [label="entropy = 0.0\nsamples = 10\nvalue = [10, 0]\nclass = y[0]"] ;
382 -> 383 ;
384 [label="x[4] <= -0.476\nentropy = 1.0\nsamples = 2\nvalue = [1, 1]\nclass = y[0]"] ;
382 -> 384 ;
385 [label="entropy = 0.0\nsamples = 1\nvalue = [0, 1]\nclass = y[1]"] ;
384 -> 385 ;
386 [label="entropy = 0.0\nsamples = 1\nvalue = [1, 0]\nclass = y[0]"] ;
384 -> 386 ;
387 [label="entropy = 0.0\nsamples = 3\nvalue = [3, 0]\nclass = y[0]"] ;
365 -> 387 ;
388 [label="x[3] <= -0.216\nentropy = 0.918\nsamples = 6\nvalue = [4, 2]\nclass = y[0]"] ;
342 -> 388 ;
389 [label="entropy = 0.0\nsamples = 1\nvalue = [1, 0]\nclass = y[0]"] ;
388 -> 389 ;
390 [label="x[4] <= -0.453\nentropy = 0.971\nsamples = 5\nvalue = [3, 2]\nclass = y[0]"] ;
388 -> 390 ;
391 [label="entropy = 0.0\nsamples = 1\nvalue = [1, 0]\nclass = y[0]"] ;
390 -> 391 ;
392 [label="x[3] <= -0.117\nentropy = 1.0\nsamples = 4\nvalue = [2, 2]\nclass = y[0]"] ;
390 -> 392 ;
393 [label="entropy = 0.0\nsamples = 1\nvalue = [1, 0]\nclass = y[0]"] ;
392 -> 393 ;
394 [label="x[3] <= -0.011\nentropy = 0.918\nsamples = 3\nvalue = [1, 2]\nclass = y[1]"] ;
392 -> 394 ;
395 [label="entropy = 1.0\nsamples = 2\nvalue = [1, 1]\nclass = y[0]"] ;
394 -> 395 ;
396 [label="entropy = 0.0\nsamples = 1\nvalue = [0, 1]\nclass = y[1]"] ;
394 -> 396 ;
397 [label="entropy = 0.0\nsamples = 6\nvalue = [6, 0]\nclass = y[0]"] ;
317 -> 397 ;
398 [label="x[11] <= 0.179\nentropy = 0.669\nsamples = 40\nvalue = [33, 7]\nclass = y[0]"] ;
312 -> 398 ;
399 [label="x[4] <= -0.498\nentropy = 0.689\nsamples = 38\nvalue = [31, 7]\nclass = y[0]"] ;
398 -> 399 ;
400 [label="entropy = 0.0\nsamples = 8\nvalue = [8, 0]\nclass = y[0]"] ;
399 -> 400 ;
401 [label="x[4] <= -0.488\nentropy = 0.784\nsamples = 30\nvalue = [23, 7]\nclass = y[0]"] ;
399 -> 401 ;
402 [label="entropy = 0.0\nsamples = 3\nvalue = [3, 0]\nclass = y[0]"] ;
401 -> 402 ;
403 [label="x[4] <= -0.462\nentropy = 0.826\nsamples = 27\nvalue = [20, 7]\nclass = y[0]"] ;
401 -> 403 ;
404 [label="x[4] <= -0.485\nentropy = 0.84\nsamples = 26\nvalue = [19, 7]\nclass = y[0]"] ;
403 -> 404 ;
405 [label="entropy = 0.0\nsamples = 2\nvalue = [2, 0]\nclass = y[0]"] ;
404 -> 405 ;
406 [label="x[4] <= -0.478\nentropy = 0.871\nsamples = 24\nvalue = [17, 7]\nclass = y[0]"] ;
404 -> 406 ;
407 [label="x[4] <= -0.483\nentropy = 0.918\nsamples = 21\nvalue = [14, 7]\nclass = y[0]"] ;
406 -> 407 ;
408 [label="x[4] <= -0.483\nentropy = 0.994\nsamples = 11\nvalue = [6, 5]\nclass = y[0]"] ;
407 -> 408 ;
409 [label="x[4] <= -0.484\nentropy = 0.65\nsamples = 6\nvalue = [5, 1]\nclass = y[0]"] ;
408 -> 409 ;
410 [label="x[3] <= 1.13\nentropy = 1.0\nsamples = 2\nvalue = [1, 1]\nclass = y[0]"] ;
409 -> 410 ;
411 [label="entropy = 0.0\nsamples = 1\nvalue = [0, 1]\nclass = y[1]"] ;
410 -> 411 ;
412 [label="entropy = 0.0\nsamples = 1\nvalue = [1, 0]\nclass = y[0]"] ;
410 -> 412 ;
413 [label="entropy = 0.0\nsamples = 4\nvalue = [4, 0]\nclass = y[0]"] ;
409 -> 413 ;
414 [label="x[3] <= 0.533\nentropy = 0.722\nsamples = 5\nvalue = [1, 4]\nclass = y[1]"] ;
408 -> 414 ;
415 [label="x[3] <= 0.157\nentropy = 0.918\nsamples = 3\nvalue = [1, 2]\nclass = y[1]"] ;
414 -> 415 ;
416 [label="entropy = 0.0\nsamples = 1\nvalue = [0, 1]\nclass = y[1]"] ;
415 -> 416 ;
417 [label="entropy = 1.0\nsamples = 2\nvalue = [1, 1]\nclass = y[0]"] ;
415 -> 417 ;
418 [label="entropy = 0.0\nsamples = 2\nvalue = [0, 2]\nclass = y[1]"] ;
414 -> 418 ;
419 [label="x[3] <= 0.826\nentropy = 0.722\nsamples = 10\nvalue = [8, 2]\nclass = y[0]"] ;
407 -> 419 ;
420 [label="x[3] <= 0.4\nentropy = 0.65\nsamples = 6\nvalue = [5, 1]\nclass = y[0]"] ;
419 -> 420 ;
421 [label="x[3] <= 0.088\nentropy = 0.811\nsamples = 4\nvalue = [3, 1]\nclass = y[0]"] ;
420 -> 421 ;
422 [label="entropy = 0.0\nsamples = 1\nvalue = [1, 0]\nclass = y[0]"] ;
421 -> 422 ;
423 [label="x[3] <= 0.316\nentropy = 0.918\nsamples = 3\nvalue = [2, 1]\nclass = y[0]"] ;
421 -> 423 ;
424 [label="entropy = 0.0\nsamples = 1\nvalue = [0, 1]\nclass = y[1]"] ;
423 -> 424 ;
425 [label="entropy = 0.0\nsamples = 2\nvalue = [2, 0]\nclass = y[0]"] ;
423 -> 425 ;
426 [label="entropy = 0.0\nsamples = 2\nvalue = [2, 0]\nclass = y[0]"] ;
420 -> 426 ;
427 [label="x[3] <= 1.191\nentropy = 0.811\nsamples = 4\nvalue = [3, 1]\nclass = y[0]"] ;
419 -> 427 ;
428 [label="entropy = 0.0\nsamples = 3\nvalue = [3, 0]\nclass = y[0]"] ;
427 -> 428 ;
429 [label="entropy = 0.0\nsamples = 1\nvalue = [0, 1]\nclass = y[1]"] ;
427 -> 429 ;
430 [label="entropy = 0.0\nsamples = 3\nvalue = [3, 0]\nclass = y[0]"] ;
406 -> 430 ;
431 [label="entropy = 0.0\nsamples = 1\nvalue = [1, 0]\nclass = y[0]"] ;
403 -> 431 ;
432 [label="entropy = 0.0\nsamples = 2\nvalue = [2, 0]\nclass = y[0]"] ;
398 -> 432 ;
433 [label="entropy = 0.0\nsamples = 7\nvalue = [7, 0]\nclass = y[0]"] ;
311 -> 433 ;
434 [label="entropy = 0.0\nsamples = 3\nvalue = [3, 0]\nclass = y[0]"] ;
310 -> 434 ;
435 [label="x[3] <= 0.149\nentropy = 0.863\nsamples = 7\nvalue = [2, 5]\nclass = y[1]"] ;
309 -> 435 ;
436 [label="x[3] <= -0.06\nentropy = 0.971\nsamples = 5\nvalue = [2, 3]\nclass = y[1]"] ;
435 -> 436 ;
437 [label="x[3] <= -0.138\nentropy = 1.0\nsamples = 2\nvalue = [1, 1]\nclass = y[0]"] ;
436 -> 437 ;
438 [label="entropy = 0.0\nsamples = 1\nvalue = [0, 1]\nclass = y[1]"] ;
437 -> 438 ;
439 [label="entropy = 0.0\nsamples = 1\nvalue = [1, 0]\nclass = y[0]"] ;
437 -> 439 ;
440 [label="entropy = 0.918\nsamples = 3\nvalue = [1, 2]\nclass = y[1]"] ;
436 -> 440 ;
441 [label="entropy = 0.0\nsamples = 2\nvalue = [0, 2]\nclass = y[1]"] ;
435 -> 441 ;
442 [label="x[0] <= -0.092\nentropy = 0.904\nsamples = 72\nvalue = [49, 23]\nclass = y[0]"] ;
186 -> 442 ;
443 [label="x[0] <= -1.19\nentropy = 0.979\nsamples = 41\nvalue = [24, 17]\nclass = y[0]"] ;
442 -> 443 ;
444 [label="x[1] <= 0.105\nentropy = 0.995\nsamples = 35\nvalue = [19, 16]\nclass = y[0]"] ;
443 -> 444 ;
445 [label="x[4] <= 6.198\nentropy = 0.971\nsamples = 25\nvalue = [15, 10]\nclass = y[0]"] ;
444 -> 445 ;
446 [label="x[3] <= 0.127\nentropy = 0.932\nsamples = 23\nvalue = [15, 8]\nclass = y[0]"] ;
445 -> 446 ;
447 [label="x[2] <= 1.163\nentropy = 0.994\nsamples = 11\nvalue = [6, 5]\nclass = y[0]"] ;
446 -> 447 ;
448 [label="x[4] <= 3.607\nentropy = 0.971\nsamples = 10\nvalue = [6, 4]\nclass = y[0]"] ;
447 -> 448 ;
449 [label="x[13] <= 0.307\nentropy = 0.991\nsamples = 9\nvalue = [5, 4]\nclass = y[0]"] ;
448 -> 449 ;
450 [label="x[4] <= 0.812\nentropy = 0.954\nsamples = 8\nvalue = [5, 3]\nclass = y[0]"] ;
449 -> 450 ;
451 [label="x[3] <= -0.135\nentropy = 0.918\nsamples = 6\nvalue = [4, 2]\nclass = y[0]"] ;
450 -> 451 ;
452 [label="entropy = 0.0\nsamples = 1\nvalue = [0, 1]\nclass = y[1]"] ;
451 -> 452 ;
453 [label="x[4] <= 0.039\nentropy = 0.722\nsamples = 5\nvalue = [4, 1]\nclass = y[0]"] ;
451 -> 453 ;
454 [label="x[4] <= -0.08\nentropy = 0.811\nsamples = 4\nvalue = [3, 1]\nclass = y[0]"] ;
453 -> 454 ;
455 [label="entropy = 0.0\nsamples = 2\nvalue = [2, 0]\nclass = y[0]"] ;
454 -> 455 ;
456 [label="x[4] <= -0.06\nentropy = 1.0\nsamples = 2\nvalue = [1, 1]\nclass = y[0]"] ;
454 -> 456 ;
457 [label="entropy = 0.0\nsamples = 1\nvalue = [0, 1]\nclass = y[1]"] ;
456 -> 457 ;
458 [label="entropy = 0.0\nsamples = 1\nvalue = [1, 0]\nclass = y[0]"] ;
456 -> 458 ;
459 [label="entropy = 0.0\nsamples = 1\nvalue = [1, 0]\nclass = y[0]"] ;
453 -> 459 ;
460 [label="x[4] <= 0.851\nentropy = 1.0\nsamples = 2\nvalue = [1, 1]\nclass = y[0]"] ;
450 -> 460 ;
461 [label="entropy = 0.0\nsamples = 1\nvalue = [0, 1]\nclass = y[1]"] ;
460 -> 461 ;
462 [label="entropy = 0.0\nsamples = 1\nvalue = [1, 0]\nclass = y[0]"] ;
460 -> 462 ;
463 [label="entropy = 0.0\nsamples = 1\nvalue = [0, 1]\nclass = y[1]"] ;
449 -> 463 ;
464 [label="entropy = 0.0\nsamples = 1\nvalue = [1, 0]\nclass = y[0]"] ;
448 -> 464 ;
465 [label="entropy = 0.0\nsamples = 1\nvalue = [0, 1]\nclass = y[1]"] ;
447 -> 465 ;
466 [label="x[14] <= 0.01\nentropy = 0.811\nsamples = 12\nvalue = [9, 3]\nclass = y[0]"] ;
446 -> 466 ;
467 [label="entropy = 0.0\nsamples = 4\nvalue = [4, 0]\nclass = y[0]"] ;
466 -> 467 ;
468 [label="x[3] <= 3.233\nentropy = 0.954\nsamples = 8\nvalue = [5, 3]\nclass = y[0]"] ;
466 -> 468 ;
469 [label="x[4] <= 0.67\nentropy = 1.0\nsamples = 6\nvalue = [3, 3]\nclass = y[0]"] ;
468 -> 469 ;
470 [label="x[4] <= 0.071\nentropy = 0.971\nsamples = 5\nvalue = [2, 3]\nclass = y[1]"] ;
469 -> 470 ;
471 [label="x[4] <= -0.046\nentropy = 0.811\nsamples = 4\nvalue = [1, 3]\nclass = y[1]"] ;
470 -> 471 ;
472 [label="x[4] <= -0.078\nentropy = 1.0\nsamples = 2\nvalue = [1, 1]\nclass = y[0]"] ;
471 -> 472 ;
473 [label="entropy = 0.0\nsamples = 1\nvalue = [0, 1]\nclass = y[1]"] ;
472 -> 473 ;
474 [label="entropy = 0.0\nsamples = 1\nvalue = [1, 0]\nclass = y[0]"] ;
472 -> 474 ;
475 [label="entropy = 0.0\nsamples = 2\nvalue = [0, 2]\nclass = y[1]"] ;
471 -> 475 ;
476 [label="entropy = 0.0\nsamples = 1\nvalue = [1, 0]\nclass = y[0]"] ;
470 -> 476 ;
477 [label="entropy = 0.0\nsamples = 1\nvalue = [1, 0]\nclass = y[0]"] ;
469 -> 477 ;
478 [label="entropy = 0.0\nsamples = 2\nvalue = [2, 0]\nclass = y[0]"] ;
468 -> 478 ;
479 [label="entropy = 0.0\nsamples = 2\nvalue = [0, 2]\nclass = y[1]"] ;
445 -> 479 ;
480 [label="x[4] <= 1.449\nentropy = 0.971\nsamples = 10\nvalue = [4, 6]\nclass = y[1]"] ;
444 -> 480 ;
481 [label="x[3] <= -0.57\nentropy = 0.918\nsamples = 9\nvalue = [3, 6]\nclass = y[1]"] ;
480 -> 481 ;
482 [label="entropy = 0.0\nsamples = 1\nvalue = [1, 0]\nclass = y[0]"] ;
481 -> 482 ;
483 [label="x[2] <= 0.527\nentropy = 0.811\nsamples = 8\nvalue = [2, 6]\nclass = y[1]"] ;
481 -> 483 ;
484 [label="x[4] <= 0.815\nentropy = 0.863\nsamples = 7\nvalue = [2, 5]\nclass = y[1]"] ;
483 -> 484 ;
485 [label="entropy = 0.0\nsamples = 2\nvalue = [0, 2]\nclass = y[1]"] ;
484 -> 485 ;
486 [label="x[4] <= 1.242\nentropy = 0.971\nsamples = 5\nvalue = [2, 3]\nclass = y[1]"] ;
484 -> 486 ;
487 [label="x[3] <= 0.024\nentropy = 0.811\nsamples = 4\nvalue = [1, 3]\nclass = y[1]"] ;
486 -> 487 ;
488 [label="x[4] <= 1.062\nentropy = 1.0\nsamples = 2\nvalue = [1, 1]\nclass = y[0]"] ;
487 -> 488 ;
489 [label="entropy = 0.0\nsamples = 1\nvalue = [1, 0]\nclass = y[0]"] ;
488 -> 489 ;
490 [label="entropy = 0.0\nsamples = 1\nvalue = [0, 1]\nclass = y[1]"] ;
488 -> 490 ;
491 [label="entropy = 0.0\nsamples = 2\nvalue = [0, 2]\nclass = y[1]"] ;
487 -> 491 ;
492 [label="entropy = 0.0\nsamples = 1\nvalue = [1, 0]\nclass = y[0]"] ;
486 -> 492 ;
493 [label="entropy = 0.0\nsamples = 1\nvalue = [0, 1]\nclass = y[1]"] ;
483 -> 493 ;
494 [label="entropy = 0.0\nsamples = 1\nvalue = [1, 0]\nclass = y[0]"] ;
480 -> 494 ;
495 [label="x[13] <= 0.041\nentropy = 0.65\nsamples = 6\nvalue = [5, 1]\nclass = y[0]"] ;
443 -> 495 ;
496 [label="x[4] <= -0.381\nentropy = 0.918\nsamples = 3\nvalue = [2, 1]\nclass = y[0]"] ;
495 -> 496 ;
497 [label="entropy = 0.0\nsamples = 1\nvalue = [1, 0]\nclass = y[0]"] ;
496 -> 497 ;
498 [label="x[4] <= -0.354\nentropy = 1.0\nsamples = 2\nvalue = [1, 1]\nclass = y[0]"] ;
496 -> 498 ;
499 [label="entropy = 0.0\nsamples = 1\nvalue = [0, 1]\nclass = y[1]"] ;
498 -> 499 ;
500 [label="entropy = 0.0\nsamples = 1\nvalue = [1, 0]\nclass = y[0]"] ;
498 -> 500 ;
501 [label="entropy = 0.0\nsamples = 3\nvalue = [3, 0]\nclass = y[0]"] ;
495 -> 501 ;
502 [label="x[2] <= -0.104\nentropy = 0.709\nsamples = 31\nvalue = [25, 6]\nclass = y[0]"] ;
442 -> 502 ;
503 [label="x[3] <= 0.187\nentropy = 0.503\nsamples = 27\nvalue = [24, 3]\nclass = y[0]"] ;
502 -> 503 ;
504 [label="x[3] <= -0.519\nentropy = 0.544\nsamples = 24\nvalue = [21, 3]\nclass = y[0]"] ;
503 -> 504 ;
505 [label="x[3] <= -0.659\nentropy = 0.918\nsamples = 3\nvalue = [2, 1]\nclass = y[0]"] ;
504 -> 505 ;
506 [label="entropy = 0.0\nsamples = 1\nvalue = [1, 0]\nclass = y[0]"] ;
505 -> 506 ;
507 [label="x[4] <= -0.496\nentropy = 1.0\nsamples = 2\nvalue = [1, 1]\nclass = y[0]"] ;
505 -> 507 ;
508 [label="entropy = 0.0\nsamples = 1\nvalue = [0, 1]\nclass = y[1]"] ;
507 -> 508 ;
509 [label="entropy = 0.0\nsamples = 1\nvalue = [1, 0]\nclass = y[0]"] ;
507 -> 509 ;
510 [label="x[3] <= -0.269\nentropy = 0.454\nsamples = 21\nvalue = [19, 2]\nclass = y[0]"] ;
504 -> 510 ;
511 [label="x[4] <= -0.483\nentropy = 0.811\nsamples = 4\nvalue = [3, 1]\nclass = y[0]"] ;
510 -> 511 ;
512 [label="entropy = 0.0\nsamples = 2\nvalue = [2, 0]\nclass = y[0]"] ;
511 -> 512 ;
513 [label="x[13] <= 0.274\nentropy = 1.0\nsamples = 2\nvalue = [1, 1]\nclass = y[0]"] ;
511 -> 513 ;
514 [label="entropy = 0.0\nsamples = 1\nvalue = [0, 1]\nclass = y[1]"] ;
513 -> 514 ;
515 [label="entropy = 0.0\nsamples = 1\nvalue = [1, 0]\nclass = y[0]"] ;
513 -> 515 ;
516 [label="x[4] <= -0.379\nentropy = 0.323\nsamples = 17\nvalue = [16, 1]\nclass = y[0]"] ;
510 -> 516 ;
517 [label="x[4] <= -0.486\nentropy = 0.353\nsamples = 15\nvalue = [14, 1]\nclass = y[0]"] ;
516 -> 517 ;
518 [label="x[4] <= -0.496\nentropy = 0.414\nsamples = 12\nvalue = [11, 1]\nclass = y[0]"] ;
517 -> 518 ;
519 [label="entropy = 0.0\nsamples = 4\nvalue = [4, 0]\nclass = y[0]"] ;
518 -> 519 ;
520 [label="x[3] <= -0.019\nentropy = 0.544\nsamples = 8\nvalue = [7, 1]\nclass = y[0]"] ;
518 -> 520 ;
521 [label="x[3] <= -0.058\nentropy = 0.592\nsamples = 7\nvalue = [6, 1]\nclass = y[0]"] ;
520 -> 521 ;
522 [label="entropy = 0.0\nsamples = 1\nvalue = [1, 0]\nclass = y[0]"] ;
521 -> 522 ;
523 [label="entropy = 0.65\nsamples = 6\nvalue = [5, 1]\nclass = y[0]"] ;
521 -> 523 ;
524 [label="entropy = 0.0\nsamples = 1\nvalue = [1, 0]\nclass = y[0]"] ;
520 -> 524 ;
525 [label="entropy = 0.0\nsamples = 3\nvalue = [3, 0]\nclass = y[0]"] ;
517 -> 525 ;
526 [label="entropy = 0.0\nsamples = 2\nvalue = [2, 0]\nclass = y[0]"] ;
516 -> 526 ;
527 [label="entropy = 0.0\nsamples = 3\nvalue = [3, 0]\nclass = y[0]"] ;
503 -> 527 ;
528 [label="x[4] <= -0.347\nentropy = 0.811\nsamples = 4\nvalue = [1, 3]\nclass = y[1]"] ;
502 -> 528 ;
529 [label="entropy = 0.0\nsamples = 1\nvalue = [1, 0]\nclass = y[0]"] ;
528 -> 529 ;
530 [label="entropy = 0.0\nsamples = 3\nvalue = [0, 3]\nclass = y[1]"] ;
528 -> 530 ;
}