digraph Tree {
node [shape=box, fontname="helvetica"] ;
edge [fontname="helvetica"] ;
0 [label="x[8] <= 0.5\nentropy = 0.974\nsamples = 712\nvalue = [424, 288]\nclass = y[0]"] ;
1 [label="x[0] <= 0.253\nentropy = 0.835\nsamples = 286\nvalue = [76, 210]\nclass = y[1]"] ;
0 -> 1 [labeldistance=2.5, labelangle=45, headlabel="True"] ;
2 [label="x[4] <= -0.084\nentropy = 0.321\nsamples = 154\nvalue = [9, 145]\nclass = y[1]"] ;
1 -> 2 ;
3 [label="x[4] <= -0.096\nentropy = 0.483\nsamples = 67\nvalue = [7, 60]\nclass = y[1]"] ;
2 -> 3 ;
4 [label="x[3] <= -0.486\nentropy = 0.439\nsamples = 66\nvalue = [6, 60]\nclass = y[1]"] ;
3 -> 4 ;
5 [label="entropy = 0.0\nsamples = 17\nvalue = [0, 17]\nclass = y[1]"] ;
4 -> 5 ;
6 [label="x[3] <= -0.169\nentropy = 0.536\nsamples = 49\nvalue = [6, 43]\nclass = y[1]"] ;
4 -> 6 ;
7 [label="x[3] <= -0.327\nentropy = 0.845\nsamples = 11\nvalue = [3, 8]\nclass = y[1]"] ;
6 -> 7 ;
8 [label="x[13] <= 0.5\nentropy = 0.592\nsamples = 7\nvalue = [1, 6]\nclass = y[1]"] ;
7 -> 8 ;
9 [label="entropy = 1.0\nsamples = 2\nvalue = [1, 1]\nclass = y[0]"] ;
8 -> 9 ;
10 [label="entropy = 0.0\nsamples = 5\nvalue = [0, 5]\nclass = y[1]"] ;
8 -> 10 ;
11 [label="x[4] <= -0.302\nentropy = 1.0\nsamples = 4\nvalue = [2, 2]\nclass = y[0]"] ;
7 -> 11 ;
12 [label="entropy = 0.0\nsamples = 2\nvalue = [0, 2]\nclass = y[1]"] ;
11 -> 12 ;
13 [label="entropy = 0.0\nsamples = 2\nvalue = [2, 0]\nclass = y[0]"] ;
11 -> 13 ;
14 [label="x[3] <= 0.585\nentropy = 0.398\nsamples = 38\nvalue = [3, 35]\nclass = y[1]"] ;
6 -> 14 ;
15 [label="entropy = 0.0\nsamples = 21\nvalue = [0, 21]\nclass = y[1]"] ;
14 -> 15 ;
16 [label="x[3] <= 0.744\nentropy = 0.672\nsamples = 17\nvalue = [3, 14]\nclass = y[1]"] ;
14 -> 16 ;
17 [label="entropy = 0.0\nsamples = 1\nvalue = [1, 0]\nclass = y[0]"] ;
16 -> 17 ;
18 [label="x[3] <= 2.092\nentropy = 0.544\nsamples = 16\nvalue = [2, 14]\nclass = y[1]"] ;
16 -> 18 ;
19 [label="x[1] <= 0.02\nentropy = 0.371\nsamples = 14\nvalue = [1, 13]\nclass = y[1]"] ;
18 -> 19 ;
20 [label="entropy = 0.0\nsamples = 10\nvalue = [0, 10]\nclass = y[1]"] ;
19 -> 20 ;
21 [label="entropy = 0.811\nsamples = 4\nvalue = [1, 3]\nclass = y[1]"] ;
19 -> 21 ;
22 [label="x[0] <= -0.933\nentropy = 1.0\nsamples = 2\nvalue = [1, 1]\nclass = y[0]"] ;
18 -> 22 ;
23 [label="entropy = 0.0\nsamples = 1\nvalue = [0, 1]\nclass = y[1]"] ;
22 -> 23 ;
24 [label="entropy = 0.0\nsamples = 1\nvalue = [1, 0]\nclass = y[0]"] ;
22 -> 24 ;
25 [label="entropy = 0.0\nsamples = 1\nvalue = [1, 0]\nclass = y[0]"] ;
3 -> 25 ;
26 [label="x[2] <= 1.379\nentropy = 0.158\nsamples = 87\nvalue = [2, 85]\nclass = y[1]"] ;
2 -> 26 ;
27 [label="entropy = 0.0\nsamples = 70\nvalue = [0, 70]\nclass = y[1]"] ;
26 -> 27 ;
28 [label="x[4] <= 1.956\nentropy = 0.523\nsamples = 17\nvalue = [2, 15]\nclass = y[1]"] ;
26 -> 28 ;
29 [label="entropy = 0.0\nsamples = 9\nvalue = [0, 9]\nclass = y[1]"] ;
28 -> 29 ;
30 [label="x[4] <= 2.384\nentropy = 0.811\nsamples = 8\nvalue = [2, 6]\nclass = y[1]"] ;
28 -> 30 ;
31 [label="x[5] <= 0.5\nentropy = 0.918\nsamples = 3\nvalue = [2, 1]\nclass = y[0]"] ;
30 -> 31 ;
32 [label="entropy = 0.0\nsamples = 1\nvalue = [0, 1]\nclass = y[1]"] ;
31 -> 32 ;
33 [label="entropy = 0.0\nsamples = 2\nvalue = [2, 0]\nclass = y[0]"] ;
31 -> 33 ;
34 [label="entropy = 0.0\nsamples = 5\nvalue = [0, 5]\nclass = y[1]"] ;
30 -> 34 ;
35 [label="x[4] <= -0.161\nentropy = 1.0\nsamples = 132\nvalue = [67, 65]\nclass = y[0]"] ;
1 -> 35 ;
36 [label="x[3] <= 0.049\nentropy = 0.96\nsamples = 102\nvalue = [39, 63]\nclass = y[1]"] ;
35 -> 36 ;
37 [label="x[4] <= -0.341\nentropy = 0.932\nsamples = 92\nvalue = [32, 60]\nclass = y[1]"] ;
36 -> 37 ;
38 [label="x[4] <= -0.482\nentropy = 0.974\nsamples = 69\nvalue = [28, 41]\nclass = y[1]"] ;
37 -> 38 ;
39 [label="x[10] <= 0.5\nentropy = 0.842\nsamples = 37\nvalue = [10, 27]\nclass = y[1]"] ;
38 -> 39 ;
40 [label="x[7] <= 0.5\nentropy = 0.885\nsamples = 33\nvalue = [10, 23]\nclass = y[1]"] ;
39 -> 40 ;
41 [label="x[4] <= -0.488\nentropy = 0.857\nsamples = 32\nvalue = [9, 23]\nclass = y[1]"] ;
40 -> 41 ;
42 [label="x[3] <= -0.288\nentropy = 0.971\nsamples = 5\nvalue = [3, 2]\nclass = y[0]"] ;
41 -> 42 ;
43 [label="entropy = 0.918\nsamples = 3\nvalue = [1, 2]\nclass = y[1]"] ;
42 -> 43 ;
44 [label="entropy = 0.0\nsamples = 2\nvalue = [2, 0]\nclass = y[0]"] ;
42 -> 44 ;
45 [label="x[3] <= -0.327\nentropy = 0.764\nsamples = 27\nvalue = [6, 21]\nclass = y[1]"] ;
41 -> 45 ;
46 [label="entropy = 0.918\nsamples = 12\nvalue = [4, 8]\nclass = y[1]"] ;
45 -> 46 ;
47 [label="entropy = 0.567\nsamples = 15\nvalue = [2, 13]\nclass = y[1]"] ;
45 -> 47 ;
48 [label="entropy = 0.0\nsamples = 1\nvalue = [1, 0]\nclass = y[0]"] ;
40 -> 48 ;
49 [label="entropy = 0.0\nsamples = 4\nvalue = [0, 4]\nclass = y[1]"] ;
39 -> 49 ;
50 [label="x[3] <= -1.22\nentropy = 0.989\nsamples = 32\nvalue = [18, 14]\nclass = y[0]"] ;
38 -> 50 ;
51 [label="x[4] <= -0.361\nentropy = 0.722\nsamples = 10\nvalue = [2, 8]\nclass = y[1]"] ;
50 -> 51 ;
52 [label="x[4] <= -0.428\nentropy = 0.503\nsamples = 9\nvalue = [1, 8]\nclass = y[1]"] ;
51 -> 52 ;
53 [label="x[4] <= -0.453\nentropy = 1.0\nsamples = 2\nvalue = [1, 1]\nclass = y[0]"] ;
52 -> 53 ;
54 [label="entropy = 0.0\nsamples = 1\nvalue = [0, 1]\nclass = y[1]"] ;
53 -> 54 ;
55 [label="entropy = 0.0\nsamples = 1\nvalue = [1, 0]\nclass = y[0]"] ;
53 -> 55 ;
56 [label="entropy = 0.0\nsamples = 7\nvalue = [0, 7]\nclass = y[1]"] ;
52 -> 56 ;
57 [label="entropy = 0.0\nsamples = 1\nvalue = [1, 0]\nclass = y[0]"] ;
51 -> 57 ;
58 [label="x[4] <= -0.447\nentropy = 0.845\nsamples = 22\nvalue = [16, 6]\nclass = y[0]"] ;
50 -> 58 ;
59 [label="entropy = 0.0\nsamples = 8\nvalue = [8, 0]\nclass = y[0]"] ;
58 -> 59 ;
60 [label="x[1] <= 0.02\nentropy = 0.985\nsamples = 14\nvalue = [8, 6]\nclass = y[0]"] ;
58 -> 60 ;
61 [label="x[4] <= -0.377\nentropy = 0.954\nsamples = 8\nvalue = [3, 5]\nclass = y[1]"] ;
60 -> 61 ;
62 [label="entropy = 0.722\nsamples = 5\nvalue = [1, 4]\nclass = y[1]"] ;
61 -> 62 ;
63 [label="entropy = 0.918\nsamples = 3\nvalue = [2, 1]\nclass = y[0]"] ;
61 -> 63 ;
64 [label="x[9] <= 0.5\nentropy = 0.65\nsamples = 6\nvalue = [5, 1]\nclass = y[0]"] ;
60 -> 64 ;
65 [label="entropy = 1.0\nsamples = 2\nvalue = [1, 1]\nclass = y[0]"] ;
64 -> 65 ;
66 [label="entropy = 0.0\nsamples = 4\nvalue = [4, 0]\nclass = y[0]"] ;
64 -> 66 ;
67 [label="x[1] <= 2.006\nentropy = 0.667\nsamples = 23\nvalue = [4, 19]\nclass = y[1]"] ;
37 -> 67 ;
68 [label="x[12] <= 0.5\nentropy = 0.454\nsamples = 21\nvalue = [2, 19]\nclass = y[1]"] ;
67 -> 68 ;
69 [label="entropy = 0.0\nsamples = 10\nvalue = [0, 10]\nclass = y[1]"] ;
68 -> 69 ;
70 [label="x[4] <= -0.305\nentropy = 0.684\nsamples = 11\nvalue = [2, 9]\nclass = y[1]"] ;
68 -> 70 ;
71 [label="entropy = 0.0\nsamples = 7\nvalue = [0, 7]\nclass = y[1]"] ;
70 -> 71 ;
72 [label="x[9] <= 0.5\nentropy = 1.0\nsamples = 4\nvalue = [2, 2]\nclass = y[0]"] ;
70 -> 72 ;
73 [label="entropy = 0.0\nsamples = 2\nvalue = [0, 2]\nclass = y[1]"] ;
72 -> 73 ;
74 [label="entropy = 0.0\nsamples = 2\nvalue = [2, 0]\nclass = y[0]"] ;
72 -> 74 ;
75 [label="entropy = 0.0\nsamples = 2\nvalue = [2, 0]\nclass = y[0]"] ;
67 -> 75 ;
76 [label="x[4] <= -0.452\nentropy = 0.881\nsamples = 10\nvalue = [7, 3]\nclass = y[0]"] ;
36 -> 76 ;
77 [label="entropy = 0.0\nsamples = 4\nvalue = [4, 0]\nclass = y[0]"] ;
76 -> 77 ;
78 [label="x[4] <= -0.404\nentropy = 1.0\nsamples = 6\nvalue = [3, 3]\nclass = y[0]"] ;
76 -> 78 ;
79 [label="entropy = 0.0\nsamples = 1\nvalue = [0, 1]\nclass = y[1]"] ;
78 -> 79 ;
80 [label="x[3] <= 0.704\nentropy = 0.971\nsamples = 5\nvalue = [3, 2]\nclass = y[0]"] ;
78 -> 80 ;
81 [label="x[3] <= 0.307\nentropy = 0.918\nsamples = 3\nvalue = [1, 2]\nclass = y[1]"] ;
80 -> 81 ;
82 [label="entropy = 0.0\nsamples = 1\nvalue = [1, 0]\nclass = y[0]"] ;
81 -> 82 ;
83 [label="entropy = 0.0\nsamples = 2\nvalue = [0, 2]\nclass = y[1]"] ;
81 -> 83 ;
84 [label="entropy = 0.0\nsamples = 2\nvalue = [2, 0]\nclass = y[0]"] ;
80 -> 84 ;
85 [label="x[4] <= -0.037\nentropy = 0.353\nsamples = 30\nvalue = [28, 2]\nclass = y[0]"] ;
35 -> 85 ;
86 [label="entropy = 0.0\nsamples = 14\nvalue = [14, 0]\nclass = y[0]"] ;
85 -> 86 ;
87 [label="x[4] <= -0.007\nentropy = 0.544\nsamples = 16\nvalue = [14, 2]\nclass = y[0]"] ;
85 -> 87 ;
88 [label="x[6] <= 0.5\nentropy = 0.918\nsamples = 3\nvalue = [1, 2]\nclass = y[1]"] ;
87 -> 88 ;
89 [label="entropy = 0.0\nsamples = 2\nvalue = [0, 2]\nclass = y[1]"] ;
88 -> 89 ;
90 [label="entropy = 0.0\nsamples = 1\nvalue = [1, 0]\nclass = y[0]"] ;
88 -> 90 ;
91 [label="entropy = 0.0\nsamples = 13\nvalue = [13, 0]\nclass = y[0]"] ;
87 -> 91 ;
92 [label="x[4] <= -0.133\nentropy = 0.687\nsamples = 426\nvalue = [348, 78]\nclass = y[0]"] ;
0 -> 92 [labeldistance=2.5, labelangle=-45, headlabel="False"] ;
93 [label="x[3] <= 1.259\nentropy = 0.51\nsamples = 318\nvalue = [282, 36]\nclass = y[0]"] ;
92 -> 93 ;
94 [label="x[4] <= -0.483\nentropy = 0.534\nsamples = 296\nvalue = [260, 36]\nclass = y[0]"] ;
93 -> 94 ;
95 [label="x[4] <= -0.484\nentropy = 0.418\nsamples = 130\nvalue = [119, 11]\nclass = y[0]"] ;
94 -> 95 ;
96 [label="x[3] <= 0.228\nentropy = 0.493\nsamples = 102\nvalue = [91, 11]\nclass = y[0]"] ;
95 -> 96 ;
97 [label="x[3] <= -0.704\nentropy = 0.548\nsamples = 87\nvalue = [76, 11]\nclass = y[0]"] ;
96 -> 97 ;
98 [label="entropy = 0.0\nsamples = 13\nvalue = [13, 0]\nclass = y[0]"] ;
97 -> 98 ;
99 [label="x[0] <= 0.253\nentropy = 0.606\nsamples = 74\nvalue = [63, 11]\nclass = y[0]"] ;
97 -> 99 ;
100 [label="entropy = 0.0\nsamples = 7\nvalue = [7, 0]\nclass = y[0]"] ;
99 -> 100 ;
101 [label="x[4] <= -0.569\nentropy = 0.644\nsamples = 67\nvalue = [56, 11]\nclass = y[0]"] ;
99 -> 101 ;
102 [label="entropy = 0.0\nsamples = 1\nvalue = [0, 1]\nclass = y[1]"] ;
101 -> 102 ;
103 [label="x[4] <= -0.486\nentropy = 0.614\nsamples = 66\nvalue = [56, 10]\nclass = y[0]"] ;
101 -> 103 ;
104 [label="entropy = 0.461\nsamples = 41\nvalue = [37, 4]\nclass = y[0]"] ;
103 -> 104 ;
105 [label="entropy = 0.795\nsamples = 25\nvalue = [19, 6]\nclass = y[0]"] ;
103 -> 105 ;
106 [label="entropy = 0.0\nsamples = 15\nvalue = [15, 0]\nclass = y[0]"] ;
96 -> 106 ;
107 [label="entropy = 0.0\nsamples = 28\nvalue = [28, 0]\nclass = y[0]"] ;
95 -> 107 ;
108 [label="x[4] <= -0.482\nentropy = 0.611\nsamples = 166\nvalue = [141, 25]\nclass = y[0]"] ;
94 -> 108 ;
109 [label="x[3] <= -0.288\nentropy = 1.0\nsamples = 8\nvalue = [4, 4]\nclass = y[0]"] ;
108 -> 109 ;
110 [label="entropy = 0.0\nsamples = 3\nvalue = [3, 0]\nclass = y[0]"] ;
109 -> 110 ;
111 [label="x[3] <= 0.466\nentropy = 0.722\nsamples = 5\nvalue = [1, 4]\nclass = y[1]"] ;
109 -> 111 ;
112 [label="x[3] <= 0.149\nentropy = 0.918\nsamples = 3\nvalue = [1, 2]\nclass = y[1]"] ;
111 -> 112 ;
113 [label="entropy = 0.0\nsamples = 1\nvalue = [0, 1]\nclass = y[1]"] ;
112 -> 113 ;
114 [label="entropy = 1.0\nsamples = 2\nvalue = [1, 1]\nclass = y[0]"] ;
112 -> 114 ;
115 [label="entropy = 0.0\nsamples = 2\nvalue = [0, 2]\nclass = y[1]"] ;
111 -> 115 ;
116 [label="x[10] <= 0.5\nentropy = 0.565\nsamples = 158\nvalue = [137, 21]\nclass = y[0]"] ;
108 -> 116 ;
117 [label="x[3] <= 1.18\nentropy = 0.501\nsamples = 145\nvalue = [129, 16]\nclass = y[0]"] ;
116 -> 117 ;
118 [label="x[2] <= 0.146\nentropy = 0.482\nsamples = 144\nvalue = [129, 15]\nclass = y[0]"] ;
117 -> 118 ;
119 [label="x[4] <= -0.381\nentropy = 0.519\nsamples = 129\nvalue = [114, 15]\nclass = y[0]"] ;
118 -> 119 ;
120 [label="x[3] <= -0.803\nentropy = 0.572\nsamples = 96\nvalue = [83, 13]\nclass = y[0]"] ;
119 -> 120 ;
121 [label="entropy = 0.787\nsamples = 17\nvalue = [13, 4]\nclass = y[0]"] ;
120 -> 121 ;
122 [label="entropy = 0.512\nsamples = 79\nvalue = [70, 9]\nclass = y[0]"] ;
120 -> 122 ;
123 [label="x[4] <= -0.198\nentropy = 0.33\nsamples = 33\nvalue = [31, 2]\nclass = y[0]"] ;
119 -> 123 ;
124 [label="entropy = 0.0\nsamples = 22\nvalue = [22, 0]\nclass = y[0]"] ;
123 -> 124 ;
125 [label="entropy = 0.684\nsamples = 11\nvalue = [9, 2]\nclass = y[0]"] ;
123 -> 125 ;
126 [label="entropy = 0.0\nsamples = 15\nvalue = [15, 0]\nclass = y[0]"] ;
118 -> 126 ;
127 [label="entropy = 0.0\nsamples = 1\nvalue = [0, 1]\nclass = y[1]"] ;
117 -> 127 ;
128 [label="x[2] <= 0.146\nentropy = 0.961\nsamples = 13\nvalue = [8, 5]\nclass = y[0]"] ;
116 -> 128 ;
129 [label="x[4] <= -0.379\nentropy = 0.722\nsamples = 10\nvalue = [8, 2]\nclass = y[0]"] ;
128 -> 129 ;
130 [label="entropy = 0.0\nsamples = 3\nvalue = [3, 0]\nclass = y[0]"] ;
129 -> 130 ;
131 [label="x[4] <= -0.364\nentropy = 0.863\nsamples = 7\nvalue = [5, 2]\nclass = y[0]"] ;
129 -> 131 ;
132 [label="entropy = 0.0\nsamples = 1\nvalue = [0, 1]\nclass = y[1]"] ;
131 -> 132 ;
133 [label="x[3] <= -0.169\nentropy = 0.65\nsamples = 6\nvalue = [5, 1]\nclass = y[0]"] ;
131 -> 133 ;
134 [label="entropy = 1.0\nsamples = 2\nvalue = [1, 1]\nclass = y[0]"] ;
133 -> 134 ;
135 [label="entropy = 0.0\nsamples = 4\nvalue = [4, 0]\nclass = y[0]"] ;
133 -> 135 ;
136 [label="entropy = 0.0\nsamples = 3\nvalue = [0, 3]\nclass = y[1]"] ;
128 -> 136 ;
137 [label="entropy = 0.0\nsamples = 22\nvalue = [22, 0]\nclass = y[0]"] ;
93 -> 137 ;
138 [label="x[3] <= 2.489\nentropy = 0.964\nsamples = 108\nvalue = [66, 42]\nclass = y[0]"] ;
92 -> 138 ;
139 [label="x[4] <= -0.129\nentropy = 0.981\nsamples = 100\nvalue = [58, 42]\nclass = y[0]"] ;
138 -> 139 ;
140 [label="entropy = 0.0\nsamples = 3\nvalue = [0, 3]\nclass = y[1]"] ;
139 -> 140 ;
141 [label="x[4] <= 6.76\nentropy = 0.972\nsamples = 97\nvalue = [58, 39]\nclass = y[0]"] ;
139 -> 141 ;
142 [label="x[4] <= 2.104\nentropy = 0.964\nsamples = 95\nvalue = [58, 37]\nclass = y[0]"] ;
141 -> 142 ;
143 [label="x[4] <= 1.591\nentropy = 0.975\nsamples = 91\nvalue = [54, 37]\nclass = y[0]"] ;
142 -> 143 ;
144 [label="x[1] <= 1.013\nentropy = 0.967\nsamples = 89\nvalue = [54, 35]\nclass = y[0]"] ;
143 -> 144 ;
145 [label="x[3] <= -0.605\nentropy = 0.98\nsamples = 84\nvalue = [49, 35]\nclass = y[0]"] ;
144 -> 145 ;
146 [label="x[4] <= 1.462\nentropy = 0.592\nsamples = 7\nvalue = [6, 1]\nclass = y[0]"] ;
145 -> 146 ;
147 [label="entropy = 0.0\nsamples = 6\nvalue = [6, 0]\nclass = y[0]"] ;
146 -> 147 ;
148 [label="entropy = 0.0\nsamples = 1\nvalue = [0, 1]\nclass = y[1]"] ;
146 -> 148 ;
149 [label="x[3] <= -0.169\nentropy = 0.99\nsamples = 77\nvalue = [43, 34]\nclass = y[0]"] ;
145 -> 149 ;
150 [label="entropy = 0.503\nsamples = 9\nvalue = [1, 8]\nclass = y[1]"] ;
149 -> 150 ;
151 [label="entropy = 0.96\nsamples = 68\nvalue = [42, 26]\nclass = y[0]"] ;
149 -> 151 ;
152 [label="entropy = 0.0\nsamples = 5\nvalue = [5, 0]\nclass = y[0]"] ;
144 -> 152 ;
153 [label="entropy = 0.0\nsamples = 2\nvalue = [0, 2]\nclass = y[1]"] ;
143 -> 153 ;
154 [label="entropy = 0.0\nsamples = 4\nvalue = [4, 0]\nclass = y[0]"] ;
142 -> 154 ;
155 [label="entropy = 0.0\nsamples = 2\nvalue = [0, 2]\nclass = y[1]"] ;
141 -> 155 ;
156 [label="entropy = 0.0\nsamples = 8\nvalue = [8, 0]\nclass = y[0]"] ;
138 -> 156 ;
}